svm_type c_svc
kernel_type rbf
gamma 8.0
nr_class 50
total_sv 1704
rho -0.46942730425950857 -0.616181940160924 -0.1931169939462353 -1.466306997081585 -0.5055319841403522 -1.8381255820366234 -0.7204265475832842 -0.5971039722789235 -1.580238296876449 -1.5279614776841404 -0.04849518089251306 -0.46092241155375113 -0.4581438389682755 -0.2634672054795405 -0.22180979869163742 -0.2677764588992891 -0.2580684535803273 -0.3959040973365684 -0.39476220122362154 -0.16782869933819883 -0.21281618039182146 -0.35942322553433853 -0.3264564125704071 -0.08933777137256006 -0.32253376623097646 -0.37668338955428043 -0.3251060578145111 -0.33454276207028966 -0.41528542735979523 -0.2983540407631133 -0.39168948691020367 -0.4274236425513591 -0.26108875227934003 -0.2855733812328539 -0.13510224939985865 -0.34146446269670144 -0.4094932353100605 -0.2746417597524977 -0.3817392038329768 -0.3245296459854059 -0.3812481398550585 -0.34053660529273555 -0.03934313399194846 -0.01680355734703224 -0.228218931946937 -0.40974464833855 -0.12998164645457036 -0.33320872060253776 -0.28767929127710035 -0.5088979968122401 -0.038385857303060766 -0.3042618499859344 -0.6514376469782965 -0.1079118026186778 -0.4110772285888697 -0.49911787370626765 0.09564295860998356 -0.5922711241316141 0.3255495267168663 0.12681149072756623 -0.380027858459422 -0.2168733664078952 -0.15728841916511466 -0.16436480459302763 -0.1951172023176946 -0.3788459254037208 -0.30093446771444515 -0.12324640861511081 -0.16722395731882986 -0.3016534981297315 -0.27248883017567416 -0.024675252720890595 -0.2566167254199468 -0.31523255343794765 -0.27865979148165254 -0.2805528119028517 -0.3732170738821445 -0.24188321037648639 -0.33234098456731254 -0.37959534638302517 -0.20878362748664933 -0.22884570993974346 -0.15326597131952135 -0.2615607693879187 -0.3683002115962663 -0.22345308944011547 -0.3350859126473124 -0.2807728832002771 -0.3183552469646595 -0.28550399902603507 0.007633720360745658 0.02271202444436043 -0.18162159034127895 -0.34968900935113556 -0.08415628064767787 -0.2853632774939012 -0.24041145029127053 -0.16250526414026054 -0.14851017148724147 -0.03995459999302034 -0.22582523688681144 0.04681361678875584 0.09688262926289036 0.07199385177311259 -0.1895491419814427 0.34915877783137544 0.4427223970246674 -0.037780451943897585 0.10064536154828484 0.21430313677240875 0.25309861749216195 0.16777240807750285 0.25816159202510136 0.007521447979145555 0.19027193264130096 0.22218900384067733 0.07142177841821781 0.026992492845413014 0.28566966566679775 0.1263358385259676 -0.007195765534661486 0.0246484125840231 0.006357399190431768 -0.09102451722916374 0.13882794833068124 -0.044264311398524714 -0.09673759035697914 0.06173175016272712 0.17395204568307626 0.13225106869141723 0.030444866315898402 -0.08210506198263395 0.07519379716745672 -0.04886956492923634 0.013735819697626064 -0.052671536199665955 0.00783468653013838 0.300828942091216 0.3123482087568609 0.11914252945588624 -0.07729187481390701 0.2202323988041481 0.010309284549606591 0.059547894399581615 -0.07263970955496626 -0.29282684291295585 -0.25909032351814326 -0.3864388852377341 -0.07588609899392611 -0.3399949901506665 -0.3191731193199962 0.11426755749906901 0.19706183407717878 -0.22207446473637507 -0.05792605912102391 -0.0433779527241254 -0.10347813160181016 -0.07753086562516645 -0.18269396966686266 -0.18149829381888802 -0.005164881255602634 -0.06328163380278856 -0.20329809601013363 -0.1438207805998078 0.08413033094700686 -0.13158206669618927 -0.2093652286777736 -0.157459214384067 -0.16956479811211791 -0.2649359089748653 -0.17040733353539195 -0.21881920554014098 -0.2659973853253186 -0.09415247050708848 -0.11048327001016466 -2.4458201941043666E-4 -0.11976403351142666 -0.25892127556590283 -0.10687602876442383 -0.22662690220083195 -0.16419123440835381 -0.23182811366998735 -0.17872781912912458 0.13218256843429915 0.15221619204818837 -0.05861881722164773 -0.24935214258292443 0.040135186941684504 -0.17668347289270278 -0.12194264499777771 -0.12066579086747593 0.361556437076491 -0.21198198972404053 0.2085740549978621 -0.13646908994906723 -0.3195438579592049 0.28896129452266833 0.5414294055517351 -0.07068728905081731 0.11097536560918711 0.046289089528806844 0.07336867761706177 0.09150524476441392 0.01366776363832837 -0.00867093541671648 0.16286645313727582 0.12058237958646913 -0.016515684597195556 0.014507820072779532 0.23213215703627826 0.03369481399979341 -0.04211297106943771 -0.006169785681444669 -0.02294648214261246 -0.11644621440037498 -0.014154653783708537 -0.06321327099367688 -0.1271149758976176 0.05326024033815418 0.06034236827071783 0.03372721461572418 0.0037585243179211894 -0.1121334366746497 0.04727792784879924 -0.07908131273229567 -0.014180872829566236 -0.0976713173600377 -0.025730050267052707 0.27618970592701225 0.31705066465815535 0.1001741468178284 -0.1144266615539001 0.19014317208813938 -0.03247374194064992 0.031962818817234485 0.2027476574058678 -0.6811831772103433 1.3172070350499527 0.49482426006463975 0.07993632543513637 0.21575220988489566 0.4599661429320019 -0.497515916025825 0.47374794082012006 0.562410459243311 0.37294116608627087 -0.1425281405429727 -0.3089937687104837 -0.022878431655170443 0.24263104781185965 0.0689436061614836 -0.011360618091794315 0.053442529336381446 0.2839430060065056 0.08075917868190625 -0.03098812078944648 0.03256658337224991 0.0019944659585688852 -0.10461824781277126 0.1810125639751294 -0.01897793166788199 -0.12036985461987365 0.06536640877637293 0.07611691103169367 0.19295893199936734 0.027602887835837066 -0.08836429819653727 0.07269310639744732 -0.054372894400951347 0.00323934760418667 -0.05350622312771272 0.004748144351819645 0.3041125263445636 0.31482134687011754 0.11510110297158213 -0.0792016126568272 0.2134152629319405 0.0040338336969824255 0.04912126043333754 -0.1784068452319869 -0.7582656889994213 1.2609441154442744 -0.48811151633961974 1.4320561932692377 0.6921791713613071 -0.45369048617125296 0.24706018704434798 -0.015266137077351414 0.060886521299697134 0.2591396393577926 0.17210840240553185 0.3832175674024268 0.36990228542778436 0.29060627875703154 0.15112033168326072 0.14674237930491948 0.35436907994353284 0.16336588443856354 0.06378331036959997 0.13514944543375543 0.10409820336412197 -0.004603044655603151 0.2022676919789364 0.07745563138863439 0.006423400057131588 0.18653887910890418 0.16568387579018778 0.3996236287563019 0.18180466085575891 0.001919022485114003 0.15927762743889184 0.037030912705448775 0.0974144269426745 0.05583022690047646 0.0960141110480912 0.3912490329118886 0.40636540095479995 0.20553691413395947 0.028076185147198004 0.29630779511926925 0.1195003074722901 0.15539117507052194 0.5589461271364894 0.10164333706326524 -0.1781094177164585 0.0413755430118867 1.195848595838392 -0.12199107793027955 0.24628354380119852 0.07874829723205073 0.25848362856825163 0.2645470470301924 0.3392496447140035 0.07332916583281537 0.2724501059784999 0.19135065462489656 0.06385525733481065 0.10041144226905575 0.31944103217550257 0.10925664042625352 0.02646379510783118 0.0758790127186125 0.059119166303284613 -0.03558087157641706 0.1118147738949408 0.01862910920827359 -0.035832586393163585 0.1378402749701615 0.12479688592072298 0.20289028205004905 0.0799359767790898 -0.029521765607432048 0.1262767161933711 0.004665874688845298 0.06814193865353438 0.009105545204877576 0.062189134923691776 0.34714885542631213 0.35762234311435165 0.16979613470599175 -0.013043624749079174 0.2648259098354085 0.06747843551705023 0.1083280451172084 0.4621953608242583 0.8605932919358172 1.0109961927933833 0.9320885380322024 -0.6239141386729847 0.05876118044931077 1.0851581345176566 0.11376933664924453 0.06664296182625896 0.11680022478318053 0.00545778486980492 0.27101160170528715 0.15093218225609828 0.07344476315240943 -0.005395873497791482 0.28850192278686027 0.06754955134733155 -0.025735489857830553 0.044298463606752395 0.030926358141764716 -0.10066256676737667 0.0971076726773125 -0.011597553843929496 -0.09583937506973722 0.10913258872462805 0.07676223751417734 0.3784666769824791 0.06487987442208905 -0.09436053760513693 0.0747817265256849 -0.05999462872685942 0.004729536360341536 -0.03463165058250851 -0.0011904336628739956 0.3256318038172542 0.3312555481129826 0.11184183966208458 -0.06977143741740591 0.20824245623862053 0.03366778836672397 0.0624853838709346 -1.416353524055055 0.454642508168303 -0.15251712106576942 -0.4471626934014968 -0.02743011392254898 0.3260307467189833 -0.17481822477218725 0.015533914719638506 -0.2540552739417873 -0.1489225832040293 0.11687145210386925 0.035386668914423526 -0.12208845260542593 -0.08648804904105473 0.18319595032717947 -0.0751037972659204 -0.12444327711849255 -0.07498096515034072 -0.09343679342503346 -0.18041551352258506 -0.023013912313298506 -0.14239852836165184 -0.1989279196877111 0.0014610430046580348 -0.016453968016313384 0.04761050246048357 -0.08552026427244973 -0.17310247960195146 -0.02347915496642024 -0.1393205137241436 -0.08060654024460945 -0.138522343552287 -0.08665852847124095 0.21865148727708247 0.23666865990432312 0.028675822110975656 -0.17719483037107825 0.13334662006506456 -0.07368839111444518 -0.02439090395367527 1.937265098282491 1.412915862614188 -0.5741755254749041 -0.29915474395540026 0.7282952217993957 0.258050337065261 0.31299237488081877 1.3780846997022196 1.8326935237324848E-4 0.5611767804491553 0.7875980479728291 0.22512480377635416 0.1140755740596694 0.412890029437547 0.3261223378042044 0.09738756490588892 0.1836508240482407 0.14284106376031622 0.011629134357387601 0.40649405612609735 0.12961469989660013 0.011447078738262203 0.22576404947337803 0.22872958145868008 0.3617809542721821 0.1988950418104774 0.014310153789110491 0.18037424675706829 0.04835120834346591 0.11172251336396338 0.06217662013000123 0.10743344883204406 0.40120365854912654 0.40972844153311294 0.21597640732806744 0.07275740741242266 0.30887534604738065 0.13005709877529942 0.1539842096713957 0.5228856401780905 -0.9983066836639451 -0.0324643737286223 -0.3187133624433812 -0.060606425807451125 0.002470037038265039 -0.018746366176253467 -0.1527698409530242 0.1926728042429103 0.0581067559585396 -0.04145845521059837 -0.1704774777835548 0.15685748041556555 -0.1309787277624959 -0.15380621329149818 -0.09612670034918433 -0.11697864570478421 -0.20442730233459486 -0.09601858763883007 -0.16502011275385156 -0.21846056582645798 -0.01782462660903626 -0.03912243037231234 0.04290830689692741 -0.13482768547583962 -0.19365500894657806 -0.047261818945956005 -0.15770805446268904 -0.10652304747341036 -0.1672005155577628 -0.10363625165447216 0.20717123647677627 0.21923141593279105 0.014026551257506768 -0.2313109310154852 0.12180375283111536 -0.12312807046722345 -0.05425972278809929 -0.6276656517436208 0.4621055514724554 -0.3023238770052973 -0.24089164108234096 -0.11292442669999593 -0.5828913922017224 -0.27968311416233094 0.060925014646916915 0.09018826730225195 -0.10950697180980767 -0.08948040562097892 0.10996912894938887 -0.1662426626089548 -0.20640323868074684 -0.12175908792093934 -0.15621708929807948 -0.2473446867050113 -0.11164214945255489 -0.18047304468152944 -0.2602280872907168 -0.08273415374020733 -0.0917143850918977 -0.02192011823984869 -0.1547389096322306 -0.23745295434188537 -0.0840347976885256 -0.20575909802648829 -0.14573185045841774 -0.2086683873106668 -0.14952595031115667 0.15205668398489433 0.16208717885592705 -0.03964182190483596 -0.24064168210118855 0.06329202367313821 -0.15700899344604993 -0.10701461186972631 -0.34532223060393885 1.3508844352294982 0.30474904854523904 0.2703276114424529 1.473629973412792 -0.07381364410253179 0.9411179226143742 0.27694107495592035 0.316618667058714 0.16289275218728108 0.3607696305264035 0.08402318069800162 0.021590731190354602 0.06858402057091993 0.0633122612900438 -0.0644848558402102 0.21178376847940952 0.018440532917796223 -0.10634486532974947 0.13813710959326206 0.11753446177675418 0.24811358318885682 0.035191534547691465 -0.04710769735685238 0.11190289049676964 -0.008083154929552526 0.04665466307034589 -0.002360611481777141 0.049908868205263045 0.36252675543465984 0.3654080178775381 0.15814410621893543 -0.04190007027858174 0.2566996387000352 0.057921810121445254 0.09448171691168761 0.28069550360942486 0.16073965663870196 -1.8521551223034625 -0.1008279468222213 -0.22798355605538986 0.206397380910114 -0.3361943631978128 -0.339838551543 0.037473367012268145 0.4074074158207788 -0.48896134006707936 -0.9923984048410774 0.09931354391327567 0.01830524660989703 -0.27858565020841686 -0.01177315535031126 0.12611665725737228 -0.4068660122904237 0.05574305691181657 0.008651357746736749 0.14107539693803067 -0.24023195089263474 -0.17205813925615412 0.08671595887787699 -0.1299099200942521 -0.06606725899449684 -0.15479187985311224 -0.08079537880567997 0.24160888594864818 0.24272257871885414 0.028895601075446305 -0.1146935430660251 0.1331226403047345 -0.11519067342584248 -0.03852314664716299 -0.5076586062483379 0.1162903114742416 -0.1560285332174987 -0.44488697243689473 0.18104065435496733 0.051279648837655165 -0.22340609892435254 -0.15682293724087026 0.11151258025331998 -0.16301352498485844 -0.2674151623713668 -0.14650033964630121 -0.16828378487820128 -0.28705564004952944 -0.006169162176820075 -0.22151824941215714 -0.35312776838144777 -0.09503963924690442 -0.10583744980674945 -0.029531404617731388 -0.23182526037633658 -0.25308335723315817 -0.10877662850256756 -0.22100488173366692 -0.1753212249177554 -0.21605735456642056 -0.15720120047855182 0.16962664310637793 0.16969277187121057 -0.06396218562199114 -0.2702543489920659 0.05610139713973571 -0.16266943091765343 -0.11722506440247661 -0.03455643820312163 -0.5600572321422789 -0.3404292865189087 0.3736255487666206 -0.7086489305612248 -0.1740059249198157 0.35092516495741394 0.2385770657439103 -0.3317031252276693 -0.14171889626597348 0.030105371708735486 -0.03883937978101706 -0.20808678237631376 -0.0381617795758885 -0.1107161406005294 -0.22138737895591534 0.5239809838161675 -0.11867892986497144 0.10412744291068655 -0.1647011574806327 -0.19023514249988713 0.007695361440438696 -0.15500062760522826 -0.18562422278610882 -0.18046489211025218 -0.08834797369733911 0.1942838622783611 0.22827380142226414 0.022147487630196912 -0.17550324758732688 0.08127599089559455 -0.08078884327515079 -0.029564318700240403 -0.5218497509634906 -0.1780831713389377 0.003894653546985441 -0.4095850425090809 -0.36163340069388955 -0.12330294026599267 0.05244783502784118 -0.02435542144172183 -0.2783631797253823 -0.09593950479000149 -0.10819723465016295 -0.2592732760410814 0.18084849574244585 -0.14425586921237546 -0.26337666112244357 0.1920640235354086 -0.06985369070352923 0.020630967550802855 -0.1623560013174487 -0.22502066062670004 -0.03827323559151626 -0.15900755182497397 -0.12447555642757933 -0.17250633611400643 -0.094322234737526 0.20767527050315407 0.21958167125753686 0.00752130992403699 -0.2189061148138034 0.11459800983956844 -0.11793144197364952 -0.051454394047897464 -0.4588400594357962 0.5312924118833655 0.48095253550975353 -0.22697833613180263 0.03257184913647771 0.21339629148181713 -0.13529869152217455 -0.13441072995996847 0.0037553938850788445 -0.035273145125643154 -0.17336389252673368 0.052406289505644736 -0.08243189898387411 -0.16965939885448444 0.048940034064584775 0.05552251805149018 0.1217153028819539 -0.006627399031965282 -0.13252409195936007 0.02146016773780692 -0.09438591667910615 -0.049211549624294415 -0.0926574335623088 -0.03399711388260041 0.26012493773676515 0.27400132559791607 0.07357701353331107 -0.08758642063243827 0.17814381684577632 -0.029636609868188876 0.010656593247599109 0.5244142267331063 0.872326820967812 0.5833621910552187 -0.13937083790299729 0.3481981786500687 0.07519828716307261 -0.13138707562785343 -0.030479612017716245 0.051557011221298375 -0.1265265172415672 0.09964420357246634 0.10792092608095276 -0.19756944808229934 0.10336771187580948 0.061278421325489614 0.16745604893897204 0.005509736832637274 -0.08568683881935651 0.07782560801353473 -0.05230317356489634 0.0031790957547458707 -0.05197457821946501 0.006858474107579477 0.30615127194928 0.3161250147239674 0.10584764796676122 -0.11629066483320992 0.21700306975774433 0.003041000002317005 0.05512319682649623 1.1987334285449767 -0.8953970617483561 -0.37885476394079903 0.12160249869739521 -0.33568936418660966 -0.30979608853422963 -0.016794664392650132 -0.19744069229545003 -0.5755224314384257 -0.14750827426845028 -0.25676342775980415 -0.2651829081183911 -0.1095797789339057 -0.08360826760048863 -0.00328586864892967 -0.17724161289240564 -0.292496358647644 -0.09352693005894376 -0.2257320192335909 -0.15752735946170976 -0.21599907264905774 -0.16425108371373798 0.13598075868253168 0.14570600538414188 -0.06001609847193482 -0.216736257529219 0.04603136292815723 -0.16057542619240148 -0.11963021392950925 -1.1871414588345712 0.10493302869090984 0.4575699714820947 -0.37763783429716025 -0.3815524052255576 0.20343718061495505 0.13800392391159333 -0.31054904757683544 0.3035903183335933 -0.2019254309665734 -0.28153587623773857 0.2621119903165371 0.6070976670107745 0.1113250732052451 -0.134887317974524 -0.17040498309792781 0.07312989061053557 -0.16173038266748446 -0.14045795536673442 -0.1710293050433605 -0.11758967072549846 0.2150413333511937 0.19601099481440604 -0.005417857860829467 -0.16937510107846762 0.09360796975499484 -0.10355169958124928 -0.06284962897453097 -0.08215689121145135 0.602749777361456 0.5316476479462798 -0.7530512204576706 0.6034901388856182 0.02487854599973891 -0.17921083788757178 0.40734278443162614 0.5783972809825733 -0.1296529782644021 0.17842003085662647 0.491638927499891 0.3457713300175895 0.12343996323390834 -0.06520097960277758 0.2663454413826199 -0.04499697249813048 0.011104770560208487 -0.03567602147069753 0.012258182690737664 0.3049528272288898 0.3143996094474699 0.12798791036913884 -0.029492667261357713 0.22018683412952186 0.009672150927961856 0.06453961095717667 0.06251232293253456 -0.29228607778552507 -0.9719521428946539 -0.18922045473381038 -0.19673022718393612 -0.35089240440813124 -0.39138728548168755 0.08903090885567178 -0.759189545153154 0.1260896121265371 0.17214215017311205 0.8986473931845852 0.11929643994557224 -0.11862214642474136 0.24917781478467735 -0.1084718940459873 -0.13703398581727502 -0.07047319579764992 -0.03699637989908701 0.2584882908385857 0.2960216177818597 0.06581844271151861 -0.2276512482310296 0.20631075477151714 -0.007314642039944876 0.05302981008444919 -0.6272207464425308 -0.5158399080225573 -0.3299297006655496 -0.667839723398671 -0.8031608237052223 -0.5887917814925233 -0.5099681988483343 -0.7699896959878039 0.25758780214699173 -0.5749427274408634 -0.18170456015642864 -0.8147081306491326 -0.5113195505525249 -0.07371979436936066 -0.3969632609942558 -0.49570819449815545 -0.41734861292949094 -0.28814834438348463 -4.750349512281769E-4 0.06165637422138612 -0.23831505934092342 -0.560116021535528 -0.06518977717333471 -0.5696482012778369 -0.2630692379667359 -0.9840861154316243 0.12023814625316943 0.19579970150921458 -0.6105482300799665 -0.23682609594738707 -0.14372306883512265 0.20054708366488141 0.04688778960613128 0.3422017803998241 0.312988159064629 -0.6504481383897159 0.010362057754209822 0.5329413385955861 -0.02513982318826931 -0.3031548551606537 -0.09602731091428962 0.020020535775047303 0.27664647771665724 0.2854289982337575 0.08651543902899908 -0.027711415412164153 0.17119099477240643 0.005978271339924236 0.06540465631588831 0.2456520913472936 0.19217089468501702 -0.3328285465543491 0.7261154122692766 0.8203354473291423 -0.3221939698222185 0.7857725330808192 0.5409431560690423 1.1209486882824826 -0.6827999181050406 -0.07068473183360165 0.5872507575722549 0.07595940336761475 -0.15861498878866803 -0.056606390562156966 0.058201057685989495 0.3545224906354184 0.3514193833600799 0.12546125252740492 -0.015223686604525772 0.2568421932846967 -0.07670579776300475 0.08242888490883993 -0.8822088852556487 -0.8175180405515311 -0.22091611020227536 -0.13053348714810417 -0.05840875865301103 0.10085891888218408 -0.5467894078562412 0.36533075099209084 -0.10960013228029997 -0.22707026980322903 0.06556522090167889 -0.09870259578942603 -0.21145979609725526 -0.07488884577481786 -0.012401692023166412 0.3126273867851532 0.31281972927441315 0.06315701064132426 -0.20727509031820285 0.19483258392002262 -0.02381066565866591 0.035616848746548455 0.014655354792541203 0.14637363989339747 -0.41775078427421236 -0.653904996556142 0.31912201403472024 0.3266879744852993 0.4827513838365622 0.01678839907189884 -0.13787212938358998 0.2657294041129363 -0.16133657063051976 -0.8182142238429213 -0.12447258036384659 0.004569542641046579 0.3671200776698241 0.37010569459408665 0.08470217856546502 -0.05222744434343877 0.21585658591201554 0.0222790447184502 0.03897668613423002 0.41503698732276745 -0.31060247439711747 0.23133692734685243 0.41184827035041915 0.0744134188517417 0.09959127198549818 0.5241465396277266 0.47081672100834376 1.072929515788268 0.031227078383557483 0.15869411894399588 0.05217805778016719 0.11240128350479851 0.41212336520753445 0.39438744405293297 0.22665974590813884 0.11204743121890214 0.3112749149411603 0.11520529645313088 0.1564829385595905 0.1305654202342981 -0.3296873942710748 -0.3458409939474056 0.650575743291265 0.26760405202709847 -0.3224049502482758 0.03788079068624947 0.08112177456100995 -0.15045471506169183 -0.17935635171048867 -0.15899281089923445 -0.06354015985694027 0.2444828132992999 0.2509961340121139 0.032464420333446854 -0.26828432030754495 0.15243471450335322 -0.11738906491026513 -0.019495097573472443 -0.02520542780825116 0.2666668765143893 0.38428834119865246 0.9104538894551758 -0.08896685603987256 -0.04814570921027157 0.859305741294034 -0.03301547533708772 0.10456353514234454 -0.03216257778271152 0.05013960171517857 0.3414310163993994 0.35785650157793064 0.13465810372008583 -0.11830117154687608 0.25263370207159447 0.022285044484148524 0.10095556983223034 -0.19633638184190244 0.565706490648461 1.8306312795628614 0.6261499980875949 -0.03709494619631228 0.983040751540956 0.32920808137806407 -0.1338161773652579 0.32831931548820986 0.373795184799229 0.6233924713694584 0.6540212403632522 0.17181606728381033 0.09686999852096491 0.4060666995664507 0.44616814507301455 0.22668937862801763 -0.19205756684417413 0.27096763598738177 -0.5564578097360495 -0.24231143903950178 0.2245319577795212 -0.3460057952255096 -0.3696401166129319 -0.27534845466724867 -0.12379921200083095 0.253788285478815 0.250214409890146 0.058883706149501114 -0.4448028149999019 0.07520721788623941 -0.4485841584212222 -0.16561688460038318 -0.3205068232735022 -0.6520383019850515 -0.034713488417979846 -0.18052223624930006 -0.14081440331056064 -0.2256310073611039 -0.16571658560624972 -0.06344440954901517 0.2419809982822395 0.24983904014091712 0.03005859179367648 -0.31918056371919606 0.13598126118519846 -0.13514824316227245 -0.024821309541654315 -0.634917370963458 -0.3657800310069213 -0.009244511351323027 -0.21677465889288836 -0.38190424139475865 -0.38226834349929134 -0.09641969543366019 0.3214006481016746 0.4849867460004946 -0.037772282422882025 -1.2381270834359193 0.12461482476264497 -0.014330784723955386 -0.04726687688081804 -0.10090230301960618 3.308120027536563 0.6474037035198348 0.1916944399600897 -0.438352661578813 -0.07569222749622745 0.36048165493339807 0.4481435941939344 0.11798960445811509 0.012755612058103175 0.22580376824270884 -0.9611556757981347 -0.2276891811821938 0.14808666406643947 -0.10104526925401212 -0.05191363915262126 -0.005997712764657517 0.11591415089153916 0.4509604209054975 0.4173891691238105 0.2963084216223728 0.6993003446701406 0.33674266130475083 0.1725422538072655 0.22952336778155485 -0.9369781710903416 -2.1500213753672868 -0.16824894756649866 0.05670725165592065 0.35473333138616775 0.32220120355253734 0.45292472724794713 -0.805751191738056 0.22955369836899026 -0.789147830067434 -0.11912618230350344 0.5040562160773365 -0.2629668631773118 0.08080955117796966 0.6926867075788633 0.5407572865287007 0.9178305719239291 0.16403222554230518 0.3024371752393721 -0.693890217182758 0.07952295143935617 -0.07740362430666524 -0.04755992781541902 0.3803490367033966 0.3541529210921896 0.09412632808901403 0.17118516670406697 0.14551111039444423 -0.03717580930112138 0.07678673378309113 0.7684947236901322 0.5264779243397945 0.6072216099021939 0.3946377562676524 -0.5983777804392731 0.4859393464962969 -0.5569157294031077 0.5334206570373755 0.48755704407662104 0.28407312320548983 0.17153262010416007 -0.72770906061522 0.1549544441915213 -0.3905938815349084 -0.06466648364884998 -0.2465621593495624 -0.05691166740516778 -1.002031627572933 -0.09634087171793654 -0.28638190018880927 -0.4103865730374003 -0.5579290671649839 -0.7077318726776586 -0.10905655101510825 -0.6438544919957186 -0.4765420145098554 -0.5691908037667088 0.12311584981011763 0.004725579643813606 -0.2871773266549619 0.43893127773933666 0.3741154472371862 0.36505403018088817 -0.41361953045562344 -0.24878507738938735 -0.2547519906174812
label 1 2 3 4 5 6 7 8 9 10 11 12 13 14 15 16 17 18 19 20 21 22 23 24 25 26 27 28 29 30 31 32 33 34 35 36 37 38 39 40 41 42 43 44 45 46 47 48 49 50
probA -2.9167311271047764 -2.498607917005786 -2.537813975988585 -1.9622235614645094 -3.5867774422118885 -2.2236140445583885 -2.8091404214917195 -2.8523299446965518 -1.7722004422312285 -2.5307903820003728 -3.1105357194953154 -3.4884398231628 -3.8413775233431204 -4.019620961891997 -3.5783103053241434 -3.6824339408031843 -4.057999772142058 -3.71437941786244 -3.686418782018885 -3.809182655536212 -4.008297011748175 -3.8860983800098907 -4.00229950482055 -3.9861046475839803 -3.968333602489631 -4.063585099902082 -4.110766322985753 -4.18998194813451 -4.124960732457485 -3.9655742644230627 -4.066099558995752 -3.9543635281463136 -4.096778739633517 -4.207456624593972 -3.4148349547455408 -3.92063284053566 -4.206522813139813 -4.186953807386814 -4.162594574380261 -4.1103001764120854 -3.975018715271221 -4.0171551861355494 -4.116428223663241 -4.017843282725896 -4.062539653133161 -4.08115972005258 -4.166606457361023 -4.027812068707246 -4.0859621090038045 -2.699733358412085 -2.4225352381406813 -2.4816192713256 -3.2249714765465667 -3.0092169229168633 -3.5847051898142306 -2.8653472156435984 -2.5548132911073695 -3.057774008512015 -3.5586178927857333 -3.3356275661059267 -3.8760609505319246 -3.9465460376309154 -3.6179075680742137 -3.8010574166877005 -4.118053163545816 -3.690801033716421 -4.077848489607465 -4.091107033541505 -4.0696761734392535 -4.064605840653479 -4.1276947435924765 -4.093953882274701 -4.011144335472632 -4.154072758727344 -4.149376741935209 -4.219083739561681 -4.195416327119538 -3.9635151482549977 -4.143115161586816 -4.07243967362009 -4.186872605931686 -4.236708622424703 -3.68616759104425 -4.0689340896815605 -4.277613423805853 -4.225860840634973 -4.200822692326902 -4.198872091948766 -4.0922480845151314 -4.172524172239945 -4.2710576702561225 -4.168160147736254 -4.171538806330907 -4.219514337643577 -4.236302318641432 -4.16002020179133 -4.172071205497834 -2.906811330880134 -2.2126058624584903 -3.5544922249057986 -3.3217220168611297 -3.7494145034938198 -3.8579031380603133 -2.3671145970180354 -2.9613633362234664 -3.9081794422156775 -3.5520924290999916 -4.0259508183530635 -4.011314803127852 -3.798324371241724 -3.7236300439425065 -4.059683460358609 -3.2501166789809304 -3.8447671091747426 -4.0085452425207 -3.633621949021029 -3.7566954288403767 -3.898908336743729 -3.8989695506173447 -3.8709949907634864 -3.997574035150331 -4.119239954854454 -4.187575035924205 -4.0873883770168735 -3.7623948577109916 -4.066114457153742 -4.088991313326304 -3.94946380376858 -4.05278389702562 -4.05216893751644 -4.101550578055732 -4.190043555772731 -4.120906862218673 -4.167637169736032 -4.1089914403206675 -4.074923832483263 -4.105489858870087 -4.195856043358601 -4.128039920319704 -4.185084231176651 -4.106291505451776 -4.181234967714922 -4.156084044042336 -4.132204876340847 -1.7233187522386615 -2.7498715562345692 -2.707030926021083 -2.921462345697088 -3.4991793314985893 -2.8925733082876066 -3.4856985978447805 -3.635064738856067 -3.4749712486331625 -3.985518328970845 -3.8699273099119793 -3.3288010911643386 -3.786781399402129 -4.049567889426092 -3.8230081964868226 -4.0981786266678215 -4.045046334446878 -4.073005742624154 -4.062731997260504 -4.1474044726028225 -3.914166742946746 -3.955697544313225 -4.0721446367249285 -4.105682708762532 -4.156408941345184 -4.137535370835933 -3.792219604898249 -4.101540449693403 -4.048758708160734 -4.046115026168926 -4.200670770075781 -3.6476543923414444 -4.003527926156941 -4.230982869821382 -4.119024865776599 -4.136328440340673 -4.168325164844627 -3.9293769757090375 -4.05469910160536 -4.109179121268955 -3.989350735757298 -4.117043154862568 -4.077342360394313 -4.1702303792334074 -4.068554854675755 -4.058485281146221 -2.738209709805285 -2.7070323345217786 -3.220638350263114 -3.589313849058732 -2.671414517143748 -3.3510049863099485 -3.5894717813354102 -3.440721428303404 -3.9121248472729437 -3.8660952872087395 -3.36237969357446 -3.7193210287697216 -3.95979959803506 -3.5515767253532893 -4.0027496733282835 -3.990880795142663 -3.815436559088385 -3.8910114867717827 -4.010196775747574 -3.795311180280631 -3.8831882797923902 -3.992790290609438 -4.0855005943698695 -4.204172655188647 -4.072674790156733 -3.7128457524521457 -4.04439537811194 -4.033422726271138 -3.9079309712744426 -4.033671858829802 -3.8462788104498147 -4.012509713741919 -4.129903899735935 -4.054710666468165 -4.080701487691522 -4.074682529152872 -3.927231784438487 -4.022631574648104 -4.1358706279243505 -4.062154148282417 -4.090897466671943 -4.046337146824394 -4.121034636273257 -4.046866723110544 -4.0404677660556425 -2.5151902422831247 -2.669214639742641 -2.412793906491767 -3.0032936372403327 -2.589844445903298 -3.5590357470609737 -2.78903152721134 -2.902965825733975 -2.922891570718498 -3.14208461428861 -3.260769203902513 -3.115380639349068 -3.1932622723446 -3.396471465372674 -3.516621988347251 -3.2189703782626866 -3.791280247562554 -3.904074809794697 -3.6770693756684336 -3.644517743325511 -3.8161823979037672 -4.0331283399193785 -4.053236436758607 -4.0339621443630485 -3.642146105568487 -3.9933170083852767 -3.944171995261559 -4.063676099496074 -4.083192639277493 -3.7496949283641414 -3.9508502413917705 -4.165968967709741 -4.013246591393105 -4.119443773729974 -4.020455891270118 -4.044163090513194 -4.107168783735198 -4.15731160695065 -4.104993657092412 -4.1202578045622245 -4.050846765860388 -4.1750980651132235 -4.0780627195901475 -4.153365034504483 -2.615045847895309 -2.0586975339276474 -2.3321444538529605 -2.0786636278869493 -2.764324881494941 -2.7542943080576334 -3.0544081494048636 -3.7137517641440723 -2.24518330696523 -3.221036545687133 -3.7899667941634623 -3.2664400650553667 -3.273503301550777 -3.929738101528937 -3.9336624948453616 -4.026342974575826 -3.9591793088315184 -4.0510816560886695 -3.97610112555892 -4.080947950795963 -4.1210590465688695 -4.187986846999728 -4.151219406374339 -3.990347573593098 -4.053366411379717 -4.067698980813524 -4.234445455635594 -4.206619386016102 -3.703566790335671 -4.0884411762593915 -4.2144236288959895 -4.154727526612767 -4.201248043372115 -4.13784775967943 -4.136902266138044 -4.14334474236235 -4.226584862667847 -4.1248579149601134 -4.198733915050947 -4.1243812142864105 -4.230501946274055 -4.126408271189565 -4.115448954975559 -3.0337825137276444 -3.6071440261938577 -2.9970254555217934 -3.639703682895792 -2.930629738245207 -3.382124518734093 -3.691166930461317 -2.999336302046182 -3.8649861975539226 -3.155601888040631 -3.4950625428466218 -3.8788646173392785 -4.016761976198926 -3.9352483742973146 -4.081578319890071 -4.0715779950827775 -4.01857146377946 -3.9781593878779002 -4.081685215976037 -4.135445109432017 -4.171515015436162 -4.143395302364636 -3.997418666175197 -4.116290676515814 -4.092535610497593 -4.186017961344789 -4.191985589415263 -4.069058430438959 -4.141254178885262 -4.182758431872733 -4.135057579534335 -4.165598480719687 -4.142128830065022 -4.143091636461526 -4.157002705305537 -4.206137418462563 -4.128285493166565 -4.175247017597737 -4.1604994620628455 -4.220146252996363 -4.175714883486479 -4.161542270169679 -2.761647263688567 -2.212625331493428 -2.4929567581513723 -2.3963727044642176 -2.7226417387087856 -3.222789441350357 -2.748242860679367 -3.1762671833646694 -3.5448856520088654 -2.9928956587739264 -3.238881119614077 -3.8297239581445766 -3.5515993349178334 -3.9666663494323444 -3.815447406574977 -3.9893862018446424 -3.9174961767256677 -4.050487436137864 -4.0408266756460645 -4.134683431481471 -4.154257000949776 -4.005654958184367 -4.020349246464363 -3.816919104009193 -4.167896532881194 -4.209011209346542 -3.3055642271195325 -3.84370890258709 -4.245364205960063 -4.119369967338891 -4.220011209342837 -4.123810076924081 -4.073599631415517 -4.171564591993891 -4.136305655390469 -4.135313827144003 -4.169217869785583 -4.023966692728757 -4.242079868906724 -4.039754210443288 -4.121952295682533 -2.4344471235637566 -2.8629364066367518 -3.419022957837244 -3.5585529667426123 -3.7879462092473672 -3.05371467941462 -3.56942748545515 -4.025128434947436 -3.542468372632804 -3.8794188846090947 -3.836962492905658 -4.02415801550388 -3.98368798849053 -4.053880058146091 -4.0783220803372435 -4.0179826279821205 -4.120029794890945 -4.1104933621597235 -4.212266481114989 -4.140504700962059 -4.009495931215384 -4.105460680458358 -4.077187203944987 -4.224117099507906 -4.175306877427032 -4.0170225592536974 -4.123367479384224 -4.2178733151097205 -4.154608841663738 -4.16587419135865 -4.1586989805880865 -4.098285649794974 -4.155190472333897 -4.187764183619117 -4.117584687730374 -4.164464067066583 -4.149976559171943 -4.208448561807547 -4.140729093511111 -4.097917991096208 -2.652977945808585 -2.8247554521385814 -2.715222703095511 -3.032934980995194 -2.738742081190959 -3.3649429624779414 -3.602351871828766 -2.573597752136796 -3.1225116190218705 -3.1827344198033893 -3.437727879889366 -3.7253034525520112 -3.517461260854856 -4.119158624502233 -3.917863593795261 -4.081157845916476 -4.166157550812191 -4.2245500748445295 -4.1366447585803625 -3.840436309337765 -4.075082248711981 -4.124251554415039 -4.203995377315659 -4.245846320000425 -3.9139246523482107 -4.110819430174844 -4.260308261595711 -4.166667327174549 -4.240163072096423 -4.169925327274319 -4.176440132082978 -4.220918019857213 -4.283701151384352 -4.247924925043712 -4.259218740921554 -4.146477430893325 -4.318903874196052 -4.217398868811702 -4.178850413712495 -2.588533063221881 -3.1184611704850194 -3.923494955550115 -2.4282414072735072 -3.406674307409899 -3.8382557483003676 -2.5558862068027586 -3.4430649081717415 -3.654291925728906 -3.9594080086243526 -3.841102775846921 -3.861596015236948 -4.059451555258677 -3.946438075055965 -4.07459658665887 -4.109102126619324 -4.235430936837256 -4.142026132990323 -3.9337158402383174 -4.021235786585758 -4.045149989953018 -4.16473691129835 -4.191572436762789 -3.903141893540563 -4.123834455924597 -4.2487557019715 -4.131487675009822 -4.173295991801897 -4.127010605660481 -4.1041854753808575 -4.163955835926785 -4.184838398509829 -4.165275942764846 -4.1780345337672955 -4.132165264338695 -4.250195451758264 -4.153808520456286 -4.139425512474933 -3.309000012085521 -2.6994095609584257 -2.71841764900996 -3.396970525392383 -2.5669262282544087 -2.6773625269684547 -2.923727630886843 -3.5519717378887092 -3.456539698723073 -3.2843630542002344 -3.9204160801497596 -3.922966299715476 -3.797297803565936 -3.8062444021863486 -4.090539720139153 -4.162429659086814 -4.099039648162715 -3.7203918592997716 -3.9836471946025114 -4.031129805823726 -4.156470405435703 -4.179188128114808 -3.9067130893447812 -4.058092957371934 -4.214731645928809 -4.111749441136567 -4.161282066052339 -4.112411081120239 -4.125675519899441 -4.153480829228487 -4.094342403203448 -4.147628275167776 -4.111771705906589 -4.1403558955750235 -4.1571621325870085 -4.151905608583776 -4.161158422081513 -2.7817323219158774 -2.643087841438679 -3.0176289749311183 -2.891053655059099 -2.095522966116992 -2.879617587012814 -2.7460327507344218 -2.508988032396056 -3.465863071685334 -3.5689786374653627 -3.937666607490934 -3.7397357341864343 -3.9341847309182705 -3.930137006957914 -3.982532962682156 -4.069504080605706 -3.6916336803361727 -3.9972719190960153 -4.039840651552746 -4.131206250600306 -4.14824551893247 -3.918422839521057 -3.909086860203661 -4.141563144552208 -4.041277404933329 -4.091501136499023 -3.98864386075277 -4.110104592910877 -4.121629846005801 -4.124691394128391 -4.1165557071773575 -4.114518304150961 -4.045308222034896 -4.20165034959932 -4.110446661793511 -4.1034525165406075 -2.9842885188802573 -3.2345838667978786 -2.2598160866329757 -2.9438784969900897 -2.878744464634546 -3.22354033591907 -2.6198494119574716 -2.5919996441533697 -3.4302456774746646 -2.584474208744323 -2.9769712898432967 -2.5730253616757373 -3.736096691075236 -3.674883149405388 -3.5538127484693645 -2.5783270740450352 -3.3350016808029355 -3.4961123645032264 -3.8137399100049194 -3.8983137202969917 -3.4737955011044073 -3.3037468396601795 -4.083227137335399 -3.774990983398501 -4.029434150647663 -3.765195439784983 -3.9941694086338724 -4.100360249107152 -4.114839593664473 -4.199199484810798 -4.0376660137770495 -3.9140982459791447 -4.16867730013989 -3.925310440718564 -4.139582312739629 -3.492774177006462 -2.958075319896767 -2.295556166514714 -3.2399219078937693 -3.152446312881929 -3.316120788204867 -3.358343631591752 -3.701845517956606 -3.7528346550613985 -3.6754046878670903 -3.8960949487967613 -3.9566140122513698 -4.161427153675664 -4.078127353823781 -3.618487801312848 -3.9682243071726804 -3.9498698053022534 -4.12399498698525 -4.121682712442511 -3.7808195604738857 -3.920622526971024 -4.16873374754024 -4.082775203992579 -4.133324832388073 -4.0499801136410305 -4.0974275758624366 -4.11621370027045 -4.096831369744404 -4.10433552807211 -4.105042520310404 -4.031601447206349 -4.190463223013866 -4.057712660275634 -4.147628915754464 -2.876074803017744 -2.624068186878145 -3.4440265067343017 -2.0738306867391203 -2.1949872402900032 -2.5767586173944976 -2.160211001941401 -2.8874484592207748 -2.4303772174066727 -3.2605295950149715 -3.7422049390004 -3.7146945714799036 -3.4039059289079465 -2.604715980498101 -3.8130041197272795 -3.845342563355222 -2.525608447385295 -3.333983206898841 -3.744509433174818 -3.220385154103817 -3.294408093591499 -3.368288209710436 -4.044655382453219 -3.5145870816156086 -3.8614920265746497 -4.1060175341576555 -3.8139017040923937 -4.025291302133741 -4.1415190759759675 -3.549317782440023 -3.902509098520987 -3.938811372858894 -3.9937152510331315 -2.9795622808663635 -3.6456557313879023 -2.9788895061023015 -2.8484038075784417 -3.2358131372598646 -3.8153044069975066 -2.56952162166914 -3.0145385064302475 -3.3760691027605003 -4.006912413011645 -4.053946314726426 -4.029014840018024 -2.6284818192012156 -3.9761685597317222 -4.067621687763192 -3.4127377042791602 -3.668522688699421 -3.9816145552396174 -3.8381906019729457 -4.109633726912106 -3.9879783786367726 -4.127114196531101 -3.9768845601619858 -4.052354717341269 -4.143372484533324 -4.133653366470226 -4.158220988333793 -4.118615950742511 -3.934523443004319 -4.1248774513413 -4.168255318766857 -4.149734595568545 -2.8997928662551153 -2.5354525406247763 -2.7270672187129232 -2.9581390204407194 -2.5248206604499517 -3.7109271604766114 -3.4382977220742896 -3.957646766567241 -3.981912884992511 -4.121341878773565 -4.075396989187473 -3.367774056795915 -4.013379541993779 -4.0916605736822005 -4.0085716597915315 -4.071447708380156 -4.043041366017224 -4.030843841051158 -4.223685758895154 -4.038165739193051 -4.200666747596041 -4.058535522467076 -4.14533302688409 -4.167038260894975 -4.114397584591544 -4.191294890625397 -4.191586257893697 -4.067121231784157 -4.213743526882677 -4.149324983268652 -4.174009668461394 -3.0075990777233055 -3.124853151554151 -2.5118979301192996 -2.4432817356461287 -3.8897927097901728 -3.7943389984728197 -3.5538009822047587 -3.4463407649573936 -4.017687517962875 -3.9594732350603814 -3.756216041455029 -3.037298258554233 -3.876891598780786 -4.111399263487502 -3.9355098543634104 -3.8407644507629906 -3.883065001156238 -4.183922825353836 -3.913307615778304 -4.152107429139619 -4.043040972375642 -4.113325793665285 -4.123993886092434 -4.147065612365771 -4.185228128606955 -4.104927569237708 -4.0690417168736985 -4.224470199272192 -4.107103304890919 -4.142192013522236 -1.971024742728651 -2.624053863775829 -2.921499869590279 -3.6391878794908252 -2.8146560765700412 -3.5680762675541757 -3.355290520334488 -3.386509599791495 -3.0428578421000876 -2.6665772379017545 -3.783363277114872 -3.8869914159294146 -3.648942972165979 -3.667443877528203 -3.8141721204066865 -3.6412896826538215 -3.8462770624341127 -3.660269004652657 -4.041742511857997 -3.6318507004630662 -4.101292711398128 -4.101378148923982 -4.0381030698414815 -4.100891830356403 -4.031092989476437 -3.875444508435828 -4.1441414645877614 -4.081207136278819 -4.136531299187306 -2.486190678410236 -2.4323342962712537 -2.8723198202776428 -2.5196435542545568 -2.777626646382281 -2.968974621223841 -3.1562534110800864 -2.8303778631575693 -2.427400266530705 -3.3565144893916092 -3.7221823196826347 -2.505931641563544 -2.961153461167136 -3.6183852722806917 -3.2060704438641476 -3.5025337207655585 -3.3827918086352486 -4.067465553697337 -3.395132571804515 -4.017827125311742 -4.08871306486572 -4.022807088845712 -4.150822324083697 -4.0532153733365455 -3.592354227975778 -4.0601029231403745 -4.004331706948979 -4.11019896917967 -2.5036616383321277 -3.1447281857108345 -2.549997798857001 -2.5126826378457188 -2.983650589819597 -3.3441362285071126 -3.1679266054192556 -2.359990502964594 -2.7085354588651676 -3.7047971245276816 -3.5553579136333133 -3.102881220173762 -3.610698752768722 -3.2903753468131645 -4.02331248146072 -3.52108974756052 -4.093777503747313 -3.751639363968006 -4.059909322986873 -4.074182610395271 -4.088415358896499 -4.140408555031431 -4.048608450998621 -3.7794274198199784 -4.177391057975958 -4.029754116229632 -4.1314938583963094 -3.4366961287335247 -2.839347733332411 -2.5613145294953332 -3.1116755190164564 -3.4824415239014233 -2.52592838495898 -2.613459842549827 -2.472752983977523 -2.611592392436787 -3.1320961086230503 -2.4697593791926855 -2.3919681978843648 -2.939916848933337 -3.8249854587788175 -3.2700206297195864 -4.065188302308199 -3.2223774661860562 -3.950884143966122 -4.11849816585954 -3.593856441784239 -4.125231469461904 -3.871008394809258 -3.1469239417893404 -3.9364386218585476 -3.731511719682864 -4.056419158325506 -1.7504248600473178 -2.156701063715995 -3.5743510194689723 -3.1194739252115053 -2.924825404232023 -2.3580537390843856 -3.503439318721938 -3.042022752917527 -2.1437985706156732 -3.038953403727335 -2.7057154153587053 -2.8246137522036006 -3.944401903274824 -3.303283355975215 -3.838233027522874 -3.441135928488047 -3.6409841333736095 -3.9610809876964486 -3.639408577869923 -3.9595457852584337 -3.6786809419201845 -3.400673349950492 -3.9067519349486166 -3.498544347669612 -3.912567828677282 -2.1349274731062535 -3.633642330874145 -3.171608398584658 -2.5244834079166534 -1.8203163965764513 -3.459389371147669 -2.831332013642205 -2.2233636992311423 -2.7177663510836356 -2.8275916511072823 -2.6571949980981278 -3.5532859911722694 -3.2786153239913696 -3.804722732844664 -3.14914404659775 -3.6301527593669394 -3.927455313222198 -3.890264705995679 -4.013519288264275 -3.8084419767124698 -3.181798295702178 -3.9919366561756737 -3.3440896877754294 -3.7690155779806576 -3.420930642870562 -3.4471469344189347 -2.261017619558535 -2.5320834975285145 -2.507490022059148 -2.550349052683218 -2.452884764411952 -2.3846727316058196 -2.1344565627765824 -2.7478761124966726 -3.9479598420842343 -3.225400715110448 -3.7803507077372 -3.493751115498641 -3.79809734934713 -3.9385617107485396 -4.013329764088034 -4.127679372922008 -3.79422304913261 -3.3819985686868455 -4.053364350263821 -3.537822555935767 -3.9231892496848015 -2.4493331822592967 -2.7860015363441817 -3.459025942761439 -2.72236617511594 -3.3352530425019684 -3.7064756843110547 -2.84768623127433 -3.1113715207909425 -3.5838970261878904 -3.732840761890237 -3.247934868053611 -4.152771756128263 -3.7615590846534244 -4.105117988682994 -4.1303186441194315 -3.8997300321712163 -4.098511047836524 -3.861114172407755 -3.9415133525637938 -4.161765313815623 -4.013664307597603 -4.1488310510387 -2.1286856652024917 -3.391381653618542 -2.894869900313145 -3.220622733153312 -3.2526575133398943 -3.0236834015527867 -3.045938756404697 -2.7853210876440944 -3.4300377943846176 -2.778511837635457 -3.528720464204595 -2.9501980900623006 -3.791184961173645 -4.113175454073849 -3.8155653732861534 -4.100704491485361 -3.951543827754943 -3.4328844525779814 -4.114054700847583 -3.3291439040673203 -3.9682616484625424 -2.2724008534687474 -2.778446552345425 -2.957521998010869 -3.045197829164288 -2.003137442252493 -3.399394673435354 -3.117958300955269 -3.110297858433997 -2.6660393323303473 -3.933475424978092 -3.1854457914459395 -4.070165218197698 -4.0891865204406095 -4.090497970657415 -4.184172863825473 -4.048515510053382 -3.84765196440836 -4.108037576592455 -4.029025168466652 -4.123343633767708 -3.2145047760016285 -3.5872435207100852 -2.030900698980662 -2.628470362327768 -3.1988990005797504 -3.037514049031107 -3.584514251459712 -3.1874460003063207 -3.975699231138844 -3.432643686853092 -4.036475265000716 -4.098144331385532 -4.115339485702989 -4.135356208637841 -4.039434885878854 -3.7307968844317254 -4.088227380582006 -3.967920346290216 -4.090101763242299 -2.897725224390111 -3.669356158461424 -2.600652773991537 -2.6272012292335805 -3.113315120575852 -4.095770954918909 -3.1045007862618403 -4.118794551810992 -3.5317163471231217 -4.0514381999777775 -4.108276521812464 -4.075650814290703 -4.182656871293894 -3.914944906526829 -3.7568752485540706 -4.2175986173696405 -3.9416849114995167 -4.151195838496732 -3.5867522999222676 -3.4434882182382602 -2.4660655740338093 -2.5815936990105692 -3.877503370418601 -2.758107228842914 -3.123875246155844 -2.7581047435710895 -3.0855393262626816 -3.5319784219414982 -3.1159104719288906 -3.638300239653439 -3.0456333123641497 -2.4197733231916536 -3.901384625813897 -2.7115241587667835 -3.0775975812940795 -2.976500215763612 -3.3191655283960393 -2.7902440602539 -3.55881460658716 -3.1523061296948405 -3.68243524013778 -3.416120008987175 -3.558536298454687 -4.007125172932101 -3.7523607759219284 -4.007247664442336 -3.6333642856451123 -3.2942388444629986 -3.8694518536963387 -3.5442142994159895 -3.7552270404625703 -3.5519182741647697 -3.4420989494348997 -3.346433141209239 -3.198455145622251 -4.122468510938364 -3.4919815412630104 -4.130687345842392 -4.150857296172973 -4.165379500384556 -4.252975773546614 -4.09999933944786 -3.8452070897982007 -4.165133284371596 -4.0909885901479495 -4.192271444290816 -2.7538076775476044 -4.029365012847453 -3.0592082429922103 -3.5897304164765087 -3.464270481030333 -2.8532915635849467 -3.5835601966336155 -3.088421836719967 -3.122167607843641 -3.1095477643509986 -2.998898676879452 -4.051956447015131 -2.364558909253985 -3.0400439915098887 -3.2732748777081273 -2.479379571499964 -2.677741017215483 -2.5111571528920416 -2.577267484658094 -3.8281704673931762 -3.5413693747080464 -3.5885932199759907 -2.7850767947584103 -2.232751701147487 -3.750620352438236 -2.2215655081712833 -2.9761517242357023 -2.9405768898206337 -3.535267258999992 -3.1590951332595467 -3.9266388032243404 -4.171976024348672 -3.879078954531619 -4.258694929282392 -3.9028836230762813 -3.14228879584244 -3.5385542827552574 -3.7303750761877157 -4.0791718416207114 -2.97259219099506 -2.155923266688423 -3.6999150331903086 -3.8916151458663455 -2.9552146600414417 -4.073793118509191 -3.079351689933388 -2.6499529650727496 -3.6605399091360376 -2.782191071456501 -3.654405040722765 -2.792718255197533 -2.974508518832874 -3.6113064706761944 -2.8652699837688695 -3.5699209689069127 -2.993268489916589 -2.4220501828322147 -3.489461368505499 -2.4951406193156336 -3.4800501642256636 -3.8757446152970894 -3.911692437069963 -3.325946032324319 -4.115820759413353 -3.092984270765969 -3.2273374928130907 -3.4674873377120217 -3.416986848513638 -3.951324563308789 -2.761350015918882 -3.736372559577004 -2.6754066897146576 -3.376851857015646 -2.1613926237168584 -3.136931050871641 -2.278595549944219 -2.6899017815947985 -3.729968259801256 -2.9643657286251797 -3.4893409738534857 -3.084196717239554 -3.835696063896066 -2.687091092106339 -2.890241122665215 -3.251515003995968 -2.613844836147194 -2.8880825958066096 -3.4356662890967735 -2.6611874183054582 -3.636038391624992 -3.3134537524311893 -3.347033868066241 -3.732619513193737 -2.7108248237852024 -2.4987024481044577 -2.517930949974709 -3.764422538180572 -2.382859069380352 -3.0700194136897028 -3.3089265013646854 -2.020303740333948 -2.6594997053017306 -3.3163908857190867 -2.953255441686328 -2.553283994529488
probB -0.3040652163423573 -0.016404533150251376 -0.102067573620121 0.006693185792746063 -0.04708301798886941 -0.15097582298787787 -0.15634249277422582 0.04634183077834911 -0.0012477528194850848 -0.07062564745910312 0.1909311500684487 0.20161592431900058 -0.209609378342996 0.06393228198132 -0.23132164904956243 0.12636925775235955 0.07687629195961722 -0.090306631419654 -0.07457542554168603 0.1162177497350936 -0.057455088386798914 -0.06028400148733896 -0.11256754215042133 0.14484135032953607 -0.11886315027885598 -0.16636580304318505 0.1603042296830184 -0.06069701549318736 -0.1379401171829003 0.0018569610743967334 -0.18686332604066866 -0.16127610047003982 0.300866875834843 0.32081944045153427 0.05929869323394462 0.13607582575318375 -0.07120456920373743 -0.05486574341620404 -0.035386372443974246 -0.08752644359473105 -0.06738407007287027 0.07281693824030071 0.41589867483152454 0.09921964228597294 0.3175491115202826 -0.020751599663961257 0.3808115807469966 0.2061009111840557 0.06996096885929583 -0.600692754541157 -0.1172239086982174 -0.16092831721018275 -0.3781939170171534 -0.07805383362801792 -0.2217811142968445 -0.013942906506290754 -0.1280725880880298 -0.22483980879673043 0.3262438034549578 0.2680976669026554 -0.11602153785136396 -0.014526776928241258 -0.06875624800229607 0.2207921459149241 0.08339107162774895 0.061514262131534436 0.00567828787320695 0.22219485177184656 -0.04723394294910314 -0.12795197087718532 -0.03788736884113152 0.09639024723601596 -0.1195040641064134 -0.1331685449975487 -7.626479809893238E-4 -0.06493503221729831 -0.19095587399622865 0.06473295198515833 -0.16764881215424313 -0.2113458613458742 0.2830320501184989 0.010113945003756956 0.0746326554276995 0.10276532524182831 -0.023738773518655894 -0.07182784071318014 -0.07396447586328285 -0.08781951847816699 -0.13292693853510903 -0.05191839872677763 0.42398052443759754 0.11782284848516096 0.23646481656439824 -0.12698428039833615 0.4036226786926151 0.08418293430376224 0.003175653751185948 -0.21234708122446938 0.2155107273611179 -0.04786520948200505 -0.14431886691068682 0.10408599470511017 0.17885878637313965 0.01680396137497642 -0.05667987174740332 0.2644887715545339 0.26461371379671933 -0.0583145780165595 -0.019599519491411733 -0.006097842003742907 0.2445197507390962 0.2699557859052329 0.0622288719387624 0.06268390286870534 0.21162689182657315 0.08375261193036072 -0.02209575271836675 0.010901973619800826 0.09131604662365654 0.07816412389800599 0.004482185373054435 0.06926840760357515 0.058868462550439246 -0.0032810513746101473 0.24186977172235746 -0.0634645477613149 -0.0845400110993692 0.22640072369630151 0.2218413089651975 0.10223968628045195 0.09252944398651249 0.037624353833972446 0.04381642526244323 0.01564276317563766 -0.03163894003522553 -0.05922056391724965 0.047177575184737974 0.34895250211586387 0.11977238924109646 0.27170374618987303 -0.020416411019320502 0.31343850930095973 0.10474915272862823 0.04549464089990511 0.06325281854580292 0.06394317230061856 -0.10329312757354042 -0.04317560451336372 0.2514607358636476 0.04583449315948317 0.08805525080605542 0.38348248331848633 0.16128119471067134 -0.18263586054607692 -0.02312038917554212 -0.08870946679592857 0.0860354963577971 -0.0029627257441593143 0.058525449567622026 -0.01509969687775955 0.11814305669266359 -0.011708272439050113 -0.01301073625464899 -0.12656980439310492 0.0028148598522673186 -0.10066805055991467 -0.14375690981060968 0.016180565385005247 -0.02960888032915809 -0.1386670964094116 -0.02519192253805519 -0.11106797617499155 -0.11281042616980796 0.11350113267443594 -0.013809807232222502 -0.05373705849919566 0.11460873186845608 -0.0077357065793705266 -0.10089730189827961 -0.024728057679534923 -0.14850975616977008 -0.0311698781419332 0.04554897706004105 0.4109783657247401 0.028687088817109845 0.2585959889623563 0.005056981215448694 0.2456496541621151 0.0586037457225598 0.031072116578204124 -0.08823729952596676 0.0494708298895425 0.057688660064245875 0.34266834761825976 -0.03376308580876058 -0.04119071555382009 0.6545254736267471 0.5159932976110274 -0.018947633057349082 0.07323223810215973 0.15665843198580856 0.22151606865540877 0.39386279844292293 0.3384285555931887 0.0918611111780877 0.19968048017695905 0.12620710755847636 0.07215686057874923 0.1455217855297712 0.16063285547249798 0.0685145709121505 0.06420932123898912 0.14864151656108526 0.4252556596439585 0.05642067882940847 0.2780969482854076 0.026341915215762457 0.013774591261187812 0.32999991332820583 0.2376292250530379 0.155279819839053 0.20007043640105523 0.07575781525164083 0.10054413691589337 0.07590861971382622 0.07298821050727748 0.035428616917899614 0.12586343952644502 0.5673110940180728 0.5441912639945046 0.3817439952898429 0.09563993856565593 0.3851278486163096 0.13453682453082252 0.1564458686075065 -0.18680147401670982 0.04330034132020757 0.10191458836748561 0.5593688415723209 0.278228042285868 0.7577533330497489 0.0733696152295686 -0.19016220715087834 -0.04753577219130394 0.23062730827269257 0.2942855861094524 -0.08710224285428052 0.055424586552297324 0.10480161771749201 0.3129706100864317 0.24621781433726533 0.1603643582229549 0.13161158397484787 0.04648233206315144 0.031528036036062856 0.04239792775440463 0.31124457427938046 0.1583706250232116 0.056098251167093556 0.33449877537017375 0.015000722022342957 -0.00846004225651507 0.2813494175196287 0.19343856557723824 0.10554610470942712 0.2096160041498019 0.11661556886361193 0.11334606658058839 0.07521722595891878 0.007820562304962102 -0.010941489561145929 0.05347554246084876 0.35482667807439816 0.21083240597688263 0.30606503360903764 0.13936291522788383 0.3279578388126497 0.15867029245222214 0.13824077596168666 0.1807157571958385 -0.12275689102564676 -0.008735245227379456 0.002679495945914118 0.17358926685342538 0.24000642076622483 0.10522686253951599 0.16051134381764579 0.08730947539516427 0.45253027298138615 -5.128556567031337E-5 0.22306815884158426 0.0663769598143568 0.419362359620808 0.11154303121577676 0.08316908423760468 0.052372748680663876 0.12922172020138187 0.03518289203778062 0.0034938628174336047 0.14228374688141426 0.09562396380045322 0.0030405515281767123 0.1566405721423211 -0.006171182710978564 -0.04295308289713021 0.2501112794213327 0.13909681324029416 -0.1119764395298716 0.2314161763912886 0.057288611731409575 0.008695974601672271 0.04551122440820623 0.02569041982113637 0.021869829315600768 0.04809842617360981 0.4889948170063648 0.17399610461076043 0.2772686298232209 0.04690843917754455 0.2947438012806937 0.11633081108510789 0.08490830966191507 0.18924035118042726 -0.007541700490079211 0.02384094901300179 0.5682890539832838 0.32163846297389836 -0.011841888053150408 0.021668318934535986 0.1761350038300579 0.49728104594609696 -0.05639534465302427 0.3002464614801833 0.10780669790238961 0.2623686161627085 0.12082125441796074 0.09953110755370093 0.08183671148990504 0.10126381873623873 -0.028397377660260965 0.005009163605615563 0.13640427514960132 0.11893495746871333 -0.0023544853339414226 0.1774777372056777 0.03958251331828427 -0.032859848574957426 0.23949583691695833 0.09837585329119687 0.1799446506956816 0.08312969528810857 0.06404722525764751 0.10689037715912297 0.06558864875132678 0.08796299269572255 0.02753190668378549 0.0011882751961350894 0.3539559606893028 0.2268722663099895 0.30613569653992984 0.062483826983602664 0.4420259952358757 0.1427265777285123 0.12387606449060683 -0.3350035486658279 0.1103813496090861 -5.135565834497384E-4 -0.0825359685107995 0.0928023779694335 0.14819327721263453 0.09300467412695433 0.365094527118908 -0.1317925136513096 0.05647541899059914 0.09805303987995684 0.27289854714756995 0.018163554920059572 0.07973174560156966 -0.02384764689626734 -0.056500976793020005 -0.13508384123250025 -0.17933277147253146 0.13937417496833396 0.0021485761646013327 -0.13242351693690224 0.0065105465735016245 -0.12365844885723457 -0.13909821475535722 0.19152389839917786 -0.070454359234417 -0.06217114074523845 0.20404867062650858 -0.1067960101873412 -0.10874365074735941 -0.06545377112635756 -0.13694291803889405 -0.08209796143465123 -0.05090648337762339 0.1229410686825834 0.015210639910057402 0.14621591133208459 -0.020864773228180394 0.14603049314979163 0.07800693722012957 -0.02632457858963517 0.009110545653808469 0.14548403960681738 0.2876187442798592 -0.5189538895498108 -0.12720913135418535 -0.1366064149391045 0.13821566279751182 -0.053591605775972 0.03651784607062187 -0.1429509410483441 0.2696284409186853 0.029453208416154845 0.005767719790641627 -0.0525938575740378 0.09153126497470143 -0.05124226755805383 -0.03393578042720477 0.09490836979380111 -0.040645957317604266 -0.09390918679027327 0.05695748245151527 -0.1138402992473443 -0.14130422026259187 0.19995122649619682 0.08221901625540147 -0.11994482049852304 0.005277165256802642 -0.06157982087261865 -0.01819476234197394 -0.031237870263244604 0.06412503324316085 -0.07221612282192356 -0.02110225628512482 0.3446985006836596 0.09602409473716944 0.15488713724133324 -0.0036419125493169844 0.4281346530904399 0.05490012042223184 0.03998292101215596 0.1184412335510687 0.02699796369507856 -0.22146306548738665 0.20078642417917583 0.16677537720989885 0.0368539051069474 0.14395722755843715 0.3508012815326896 -0.02954354401631792 0.017891688204544023 -0.14329221299330258 0.29952129069221956 -0.053213349448723676 0.049085663527209805 0.03597767816265484 -0.07308657281365967 0.18113653284594058 0.038925467717666196 -0.09973696017657878 0.13277199082225793 -0.08547584890810796 -0.09659874306302038 0.19575878892871432 0.05806499555255947 0.01921044445693708 0.06077020321657787 -0.011224929217598902 -0.01673719219646042 -0.05467552034435475 -0.0539360416072974 -0.06500863136611156 -0.01899317384359237 0.220561665483806 0.12736384716852744 0.20267126935118573 -0.0048692287237422915 0.2459495035752886 0.09540286532129766 -0.003867707311288314 -0.2783886952209214 -0.09529891094036003 -0.27240488185039646 0.1265534324654265 -0.013754515609446141 -0.06559477538661686 -0.10065940118676056 -0.06757835150919138 -0.17145717790942278 -0.001384626297726497 -0.09710191204879823 -0.37193696747232186 0.09057157990172786 -0.12035113106680094 -0.12253612349866896 0.09740828250763205 0.40398451214644104 -0.12407082576697454 -0.019955902590989227 -0.14722698284255506 -0.16906733819378433 0.10137946592234888 0.04054798969759055 -0.18555153551680087 0.06694969105850145 0.024596100789334684 -0.09616961168054318 -0.06333310695943652 -0.07270265591305522 -0.12966473937481007 -0.06059245636328125 0.29071816871045736 -0.1195409132089021 0.12733197596023618 -0.075871648529676 0.3146067516944696 0.09776410975723025 -7.54194055694622E-4 -0.28438174523986903 0.027852770043091325 0.06631304988859117 -0.0633372159110958 0.16056021682208832 0.08618234188918072 0.025008243630183953 0.15285501003831103 -0.07698355116340291 0.10766889413300205 0.01532251271780978 -0.12089908584619423 -0.16181584970835397 -0.11530031956085982 0.2599588675024909 -0.052541606784155814 -0.08644773361197294 0.011272665894892184 -0.14062132206640038 -0.13676232110069758 0.16224092348652128 0.005386868201094628 -0.04123212383499838 -0.03005785125185806 -0.1253568530743355 -0.09654207179955715 -0.07302213468110917 -0.10534083148133419 -0.10494889967018182 -0.08494212992020155 0.3571339640648735 -0.0021781301343212225 0.07708459325968445 -0.0626366380877222 0.1368663596282785 0.03854900649005557 -0.022060709447688856 -0.09025890550975812 0.0013562231199163003 -0.02342889719748565 0.1959130419420372 0.09776248331558376 -0.11599048475138853 0.2667790246786613 0.018630097037205553 0.22013805237093012 -0.015638856156320262 0.14111956309026627 -0.006068271502805135 -0.04503406648388125 0.23673568615106688 0.03142466364827607 -0.025198937930542394 0.08760574494612622 0.008818088201331087 5.913503958945763E-4 0.24779234629763386 0.12931666413802223 0.04031126353585686 -0.002337137102769047 0.0705657149456001 -0.005029481347715025 0.015248468159921251 -0.05723614650248572 0.015186796979176487 0.04230740178804152 0.2902899642588037 0.2876254019491029 0.2848531960061097 0.10413539238416845 0.32352724515054754 0.1447579725493268 0.07680602752555762 0.07512358961980588 0.10744942425542835 0.07986506020870641 -0.04388864060640676 0.00968582428944885 0.32089659439440915 -0.04251969615038349 -0.11804560406448525 0.15611925658471856 -0.12571589060677835 -0.42393933812994505 0.21598939928707214 0.5008408188168969 0.06329901154300274 0.14961999924596014 0.15096157050425235 -0.06580171691088378 0.0066969643682019625 0.11557972949410772 0.24753538895231494 0.23000688077722045 -0.02805940443757546 0.0659843681952568 0.10389610875069231 0.007297383507247156 -0.06242598281772138 -0.0589207539937609 0.011680632210308867 0.3559250839176177 0.015362869325126106 0.24876708546621495 0.1385166694749583 0.4081972932198341 0.06900226284596159 0.0011928358724945499 0.006065325067338059 0.13438689982307245 0.14979990810321114 -0.026545016452947812 0.17704591871678185 -0.4533832670531572 -0.42052008828717036 0.02823773304360409 0.1623322934535206 -0.11669119238279206 -0.1703416282143119 0.1848844931807278 0.4772269305230804 -0.12356706732141348 -0.01963751309211799 -0.20884489978046422 -0.17783713714540497 0.3058076793471526 0.06472698624441874 0.08212331598614157 0.012393826080374338 -0.022969040276960704 -0.10418194681025622 -0.03746844696139377 -0.14115910445056898 -0.10070165729676836 -0.03535577225474755 0.37823642553208764 0.2068020703264832 0.23751860882357972 0.018546862308530986 0.3629333479869094 0.15669339725065634 -0.052647106301365196 -0.1383456065818985 0.19272266025856047 -0.3194370900236045 0.21283069700953242 -0.09519530592000566 -0.45309482839843607 -0.15729798688239782 0.2874369688255406 -0.060406224872359006 -0.03035382969402989 0.2347196908435834 -0.16816092423617832 -0.05991429750304482 0.1925692648286607 0.026791156027591554 -0.15643947680460848 -0.24563355994625427 0.3783494508427543 -0.10267039857665577 -0.10733908208432082 -0.009789143611951183 0.1392478794312142 -0.15778396689227894 -0.26606897054794576 -0.09954777279334383 -0.03015159240546367 0.11016366055070152 0.03025480325191164 0.10933750951752545 -0.18398183448865993 0.20865946477363995 0.09149952972792193 -0.008905142112328285 -0.13229674886896273 -0.02915945211133973 -0.08662140022654297 -0.19398720758445614 -0.19109391105635942 0.03653267798035101 -0.10779051376837837 -0.19223636782702577 -0.24329532464147502 0.07453491215549027 0.47450359280836063 -0.22351983711800116 -0.12732121138344582 -0.1031680473518591 -0.239174610044887 -0.35090689087999216 0.023468862873128195 -0.08296759908911157 -0.34362203914836803 -0.17285587558925478 -0.21019420649630427 -0.09913638771612136 -0.26794167800085483 -0.22198120221832485 -0.10102851399175541 0.1651100607636649 -0.019857305658207453 0.15117949738203248 -0.09383097607610612 0.179137937556878 -0.0693352841718591 -0.06134007994160437 -0.24614803593693388 -0.29116923404213 0.12105493664431423 0.01301961086171354 -0.0777380833378391 -0.10227038208255283 -0.09199148909272625 -0.3172819615551839 0.07320890998153198 -0.04924811871666055 -0.17549453644002966 -0.03473405144639931 -0.15924492417857122 -0.1483036961280539 -0.02052384360768555 -0.02555592745048501 -0.07291020025047061 -0.10498140177872069 0.009492809299062375 -0.12752140309666904 -0.04425843745447607 -0.15274511145227154 -0.10391420218063485 -0.057952575627985906 0.3373972982965959 0.027363760845463925 0.13426839070270022 -0.02861623661696047 0.21800151408404478 0.024055487292875346 -0.016226282574523593 0.15112458184483082 0.2676289828589707 3.970419131502216E-4 -0.07890485908045124 0.2226726994044178 -0.09082784714541847 -0.10644592731836143 0.48660106305933487 0.27408318445049074 -0.1428007472135847 -0.042994179303666585 -0.22446290169273936 -0.18701489065040175 0.24394142655278125 0.030812364841806425 -0.08447504897308533 -0.07907906272933168 0.02113644501614966 -0.03181724893165512 -0.004136040775660985 -0.10955635526643323 -0.06697024507408293 0.034030732304843034 0.21837670717324398 0.14247246849711107 0.20251606542183856 -0.04264541605324586 0.2968216012930962 0.05993950170784533 0.05155031736011723 -0.012311088831617674 -0.3855499813719168 -0.00923759185833489 0.1349299574174446 -0.06703252947753506 -0.05045586816039194 0.2730052597253672 -0.017909635222833495 -0.21262121351757296 0.3352512713965427 -0.033058576026577004 -0.02357386514981568 0.1568456598554364 0.10052675028180141 0.23502093246684375 0.0015690073255811643 0.051047301158313005 -0.01595335938190944 -0.040569529702599534 -0.03281841940540075 -0.1083148095907347 -0.09691465035940225 0.2467155415933494 -0.03924345644962013 0.20352172667158275 0.08668374872202403 0.24488447122223067 0.08243745379503974 -0.0415903573695124 0.019776983082675312 0.11567801136923972 -0.1282296747290157 -0.07506964771582122 0.1528109292020775 0.545453243900337 0.07966699559905169 -0.029776062457607125 0.09478416502415529 0.13776483327116465 0.062141593546220945 0.03851186098139599 0.019288199059976644 0.26115554858293394 0.010429064992850507 -0.0010236800068027792 0.10894990761536355 -0.020803851880780638 -0.1706934074979545 -0.05490525352847048 0.007151097791953927 0.27891554536010704 0.13920047687657344 0.20313958885898548 -0.02227906673912161 0.27222109461262844 0.13159772901690317 0.08802876323633693 -0.19834408610687498 0.174525377917111 -0.05821188062054963 -0.19465166652303237 0.3989107391763602 0.3656034024371984 0.032436218203107506 0.18892489786927316 -0.020099902102888544 -0.09712487590135299 0.171516278095229 0.019781168246613766 0.3154773071134693 -0.12533272670680018 0.1472977224054493 0.1019821673745654 0.062140318465342806 -0.035921584437245385 -0.07299547938429 0.03723323687891688 0.33422803169964305 0.16478125828628176 0.22331794881459754 0.13454457671613526 0.3515229627915305 0.10872265143961314 0.042042367409849596 0.15606897142072698 -0.1959363848849847 0.22417529077968062 0.4385684957716823 -0.04624305043774215 0.00713841745361172 -0.060288370518795514 -0.29806744505772853 0.07742234554935962 0.04085305557568417 0.050481721332487434 -0.15781914473145786 -0.13078841392668683 0.19330857657291625 -0.031123689458606912 -0.09034782915327955 -0.07596433599813325 -0.08992291428007583 -0.023350400803680418 0.08189902104860954 0.2085827002851664 0.056792854833589416 -0.013246357231031859 0.33659710762903056 0.03313089939475283 0.02170543885635759 0.13823451397224965 0.11625797778524453 -0.014095380896769929 0.1710904030989035 -0.05670272736281091 -0.12913224361060618 -0.1465753890278204 -0.27881495451312893 0.08056385384904223 0.4982293749185032 -0.12130454725580193 0.06840459247793819 -0.2229181722612442 -0.051605907067906916 -0.10795008622737512 -0.3735913102576909 -0.26732762907652774 -0.1646251023581533 0.033372410837254694 -0.05060363045561143 -0.06122271919400739 -0.3831363129849879 0.06165325481298335 -0.18882473240569794 -0.1535300768682045 -0.03480502502322428 0.31418885922779916 0.24306593319783318 0.10296971937329055 -0.09162694139798327 0.07998740891733502 -0.1270435967552163 -0.03367163220064841 0.061711206942946566 0.2934375035408764 -0.016680237892737756 0.020341487218679177 0.24470279986570653 0.18515531083411524 0.10278200103172187 0.1003709676756463 0.14537049583364742 0.348179123046235 0.16411544133012995 0.2978484336918913 0.17940673275916283 0.284895879340224 -0.013460292248123232 0.15614648826660224 0.3345574365022169 -0.12002414498350694 0.11263316006971319 -0.14165911194096176 0.08013376273286549 -0.0015202546781415208 -0.15177539083818356 0.27620738170522896 -0.06939098759011457 -0.01021785910316549 0.05989019617241279 0.20623012369290106 -0.01985791414530967 -0.07198448791998224 -0.12298757585575383 0.03950610620591918 0.2505288047909707 0.2033567063177301 0.1869504558158048 -0.019446919247055442 0.24169975102200966 -0.07581858658399464 0.12234878424887728 -0.3584309207758108 -0.23076087413162194 -0.13048270170122528 -0.26753068218760995 -0.5272733876245389 -0.041643841783415576 0.18552635427800604 0.0752265086084658 -0.39686413007898175 -0.14136449554166916 -0.3103038496289786 -0.25402978051378566 -0.44532298902502676 -0.14123404101907472 -0.0944205742524435 -0.039295421764698864 0.0323245018166458 -0.08418998241546338 -0.34376475302828147 0.19784281022955913 -0.0666567597890638 -0.0372514297573771 -0.25331419426243335 0.2093930199861107 -0.026417234006746483 -0.07089779288738511 -0.2721260542279702 0.12617336218280023 -0.13843042579322856 0.14736684079029277 -0.12038455822204334 0.21104900502886653 -0.05043154339872165 0.044906745189655345 -0.20313863526380646 -0.008995259915960244 0.10127566431865784 -0.3577887190557469 0.095407179081843 0.10271408963115775 0.286881605930754 -0.5852397649829347 0.023270711553652876 -0.04567614425620842 0.30951619776578254 0.011337227750980132 -0.06193333874430896 0.07327783870559745 0.23838838720095715 0.07778880408314752 0.2880055568729068 0.3447473930778232 -0.04334293579692615 0.09986926412366806 -0.01188686365369603 0.008174987115660363 0.3858184559688523 0.249203593784939 0.19475248251717983 -0.0389283423927875 0.3569805337319623 0.05597688740477631 0.1032886345455445 0.08792320700549175 -0.07446322477770627 0.22302483031864226 -0.012467703500777017 0.3098483068817827 0.14293631024984468 0.18380246315921606 0.16735265253034434 -0.04134784220729829 0.10138963137972634 -0.17950068266797906 0.0033431834044891635 0.3126015714562488 0.11639570241044382 0.18215210311818797 -0.1275139790130971 0.27320799685227737 0.011706131279975726 0.027921849504780105 0.006726446935503843 0.3253210048316302 0.4092386871425752 -0.3405461416808078 -0.07336349771262712 0.0912150434710268 -0.043422844574708894 -0.08148598440351194 -0.046262749812607015 -0.05873467625274453 0.029019066416332534 0.1987883565599587 0.21141816496377625 0.16227756897043905 -0.2302153953856047 0.3252074132586022 -0.04055213895462167 0.1106187829213887 0.12162355849335707 0.11635229703208008 0.16015334460909603 0.24395533102391093 0.32130208729363097 0.21396516281881073 0.008886181268794565 0.21473700977092347 0.06312789581139061 -0.004480748592344428 0.08731208582078531 0.34321532180533926 0.07554571778409144 0.10458272367614906 0.15849890127166413 -0.0877500657948422 0.11586843879503668 0.128560659883937 -0.12098025916702865 -0.08085915958142494 -0.05792637820389486 -0.07905089385825984 -0.4360708023352085 -0.21988266768321427 -0.3559808542740152 -0.22782768542600632 -0.1492304092615524 -0.15599352064380925 -0.34160780700293014 -0.28492209507052657 0.007599161615464297 -0.3162567277394293 -0.17363553004176355 -0.22058834193520424 -0.23133035498472299 0.1767136001359801 0.17463817333862686 -0.1781172633471125 -0.09494939951629557 -0.4692607970815657 -0.09801920034961387 0.23536548450090825 -0.2228639361705742 -0.09142491879313379 -0.13225543487551206 0.2808335238080204 -0.07301915433483595 -0.24269521761705695 -0.19905043076374856 -0.215546636922379 -0.379422062279828 -0.1278297917421772 -0.5074513390515598 -0.10318553356927042 0.2296136508056686 -2.9616691700062874E-5 0.03434558620111269 0.06609170538061922 -0.34717450294555113 0.1460382857459477 0.25512887098372555 0.10229778014669812 0.34975408109319067 0.10257541660661101 0.19912107974153778 -0.14380031959926198 -0.10852113899673532 0.06466455428478267 0.0034889553036826846 0.07962595396857795 0.06250011368615961 0.027814525538924984 0.08713710932159476 0.11445626121939265 -0.15900564069649195 0.05809183448171742 -0.14202545939587655 -0.2971218960429638 -0.09935263431134386 -0.11665876725786771 -0.18854369578191885 0.39219493146725015 -0.16514984136650787 -0.3147115401810014 -0.3018532690288159 -0.17195577081459099 -0.054739442293790144 -0.04685054903772889 0.1619849148453517 -0.22698718075216784 -0.0650463203176368 0.0931269057709383 0.27276174662214336 -0.3909833283337931 -0.07563610383505757 0.03861882682879645 -0.21656140274750388 -0.011807191539292522 0.2715621605504382 -0.22184756201095718 -0.16737021825396167 0.14672589892919816 0.048512599676361984 0.11575361514857345 -0.00957417966551715 0.019392510664111302 -0.06729911380644867 -0.036592672895636405 -0.1353805195302942 -0.1505323373255564 -0.06323247421532395 0.19297931437442342 0.08849132952695338 0.005172266335417425 -0.013113591750469873 -0.13805526597942253 0.1542028743438451 0.002151926423241352 0.34001380875055154 0.016888016437715574 0.1697262090947154 -0.013156256164892185 0.04368509554740396 0.32182762600813775 -0.3924725338392783 0.43361422431366553 0.07902957545067328 0.32790578307209156 -0.21459781422339122 0.06520700201156747 0.18001784486472078 -0.06507839976134687 -0.1490548113453693 0.020608772705252267 0.4837393127291824 -0.1494881724105765 -0.21057822892155853 -0.03488701774954932 0.11963283716232531 0.05307318338527411 0.2175663212667717 0.04425107071375139 0.04526184266712898 0.08739464430157803 -0.029388218844563052 -0.04727616343771382 0.2657190469789916 0.25526654498082485 0.1415269844904979 -0.12085524670105072 0.41859665905366145 -0.03495355724521476 -0.10451306182812622
nr_sv 57 47 26 40 47 25 34 20 38 41 44 25 19 24 38 41 33 35 31 22 31 62 25 28 39 57 47 17 27 40 53 29 30 31 32 35 35 25 65 19 37 31 18 31 32 24 31 21 45 20
SV
0.0 0.0 0.0 0.0 0.0 0.0 0.0 0.0 5.314610988723884 0.0 0.0 0.7434655749915109 0.0 0.0 0.0 0.0 0.0 0.0 0.0 0.0 0.0 0.0 0.0 0.0 0.0 0.0 0.0 0.0 0.0 0.0 0.0 0.0 0.0 0.0 0.0 0.0 0.0 0.0 0.0 0.0 0.0 0.0 0.0 0.0 0.0 0.0 0.0 0.0 0.0 0:0.84 1:0.22727272727272727 2:0.7241379310344828 3:0.6896551724137931 4:0.8 5:0.7719298245614035 6:0.5454545454545454 
8.0 0.0 0.0 0.0 0.0 2.5896023745483094 0.0 0.0 0.0 0.0 0.0 0.0 0.0 0.0 0.0 0.0 0.0 0.0 0.0 0.0 0.0 0.0 0.0 0.0 0.0 0.0 0.0 0.0 0.0 0.0 0.0 0.0 0.0 0.0 0.0 0.0 0.0 0.0 0.0 0.0 0.0 0.0 0.0 0.0 0.0 0.0 0.0 0.0 0.0 0:0.72 1:0.45454545454545453 2:0.6551724137931034 3:0.6551724137931034 4:0.64 5:0.7017543859649122 6:0.36363636363636365 
0.0 0.0 0.0 0.6234207773221844 0.0 0.0 0.0 0.0 0.0 0.0 0.0 0.0 0.0 0.0 0.0 0.0 0.0 0.0 0.0 0.0 0.0 0.0 0.0 0.0 0.0 0.0 0.0 0.0 0.0 0.0 0.0 0.0 0.0 0.0 0.0 0.0 0.0 0.0 0.0 0.0 0.0 0.0 0.0 0.0 0.0 0.0 0.0 0.0 0.1190517146583824 0:0.76 1:0.45454545454545453 2:0.5517241379310345 3:0.7413793103448276 4:0.68 5:0.7368421052631579 6:0.6363636363636364 
0.0 0.0 0.0 0.0 0.0 0.0 0.0 0.0 0.0 0.0 0.0 0.0 0.0 0.11144273227767397 0.0 0.0 0.28685999235455495 0.0 0.2809255089816687 0.38009768428762764 0.4075257831562418 0.3115793519619913 0.3935337601499233 0.5107623269413607 0.2809548999824385 0.34064404258819414 0.34729910236636835 0.3765729284722986 0.3104721139387604 0.22258377688323958 0.33687920370311814 0.4796622110567868 0.4543561199968672 0.3872970051548869 0.12210984430411216 0.2812596835838779 0.3417032070896238 0.43397364652542936 0.43660452228214136 0.40318581937043124 0.359965837842052 0.37582720947254905 0.7940185365801553 1.3955791760230454 0.7424988992046072 0.3011801807763158 0.5869532633362861 0.5587199956581606 0.9285202629238152 0:0.76 1:0.7272727272727273 2:0.5517241379310345 3:0.6724137931034483 4:0.6 5:0.7894736842105263 6:0.5909090909090909 
0.0 0.0 0.0 0.0 0.0 0.0 0.0 0.0 0.0 0.0 0.0 0.0 0.0 0.0 0.0 0.0 0.0 0.0 0.0409802660733507 0.045283224019568184 0.15720732481403346 0.13014165418562443 0.1450816525957534 0.163901410775391 0.14094450590397883 0.12126500451106195 0.12755251935537854 0.11421835493039538 0.10690901660047893 0.09330797809587593 0.14234476436454768 0.072461677396489 0.1370121001545274 0.13915539715942427 0.0 0.0 0.10035355692851075 0.13118881732397805 0.09633165121380587 0.11435788034698276 0.05025927829999104 0.04614348066777349 0.1356175595701948 0.1254563520633259 0.11888913687879074 0.0632507569506703 0.14129822693227426 0.05446846084449988 0.06097186857618386 0:0.84 1:0.6818181818181818 2:0.7241379310344828 3:0.7241379310344828 4:0.72 5:0.7017543859649122 6:0.2727272727272727 
0.0 0.0 0.0 0.0 0.07552912115800661 0.0 0.0 0.0 0.0 0.0 0.5140287072809072 0.14355546262532853 0.23836911809706016 0.26993048378822493 0.21757824519138413 0.3020731973532208 0.25866893687031367 0.257876948234303 0.23931355486737496 0.3098764947146842 0.27174446475076663 0.23748022202012453 0.22664852135566482 0.2940590863342106 0.22238975202403288 0.2018951500620741 0.2347170563984574 0.21911239036796926 0.20106505885158912 0.2154272667205007 0.20446992148360046 0.1669105647685599 0.2091666442243593 0.22106645468181357 0.04073730137392655 0.11038986132713571 0.1975980750459535 0.23946340135081962 0.19735548698124952 0.22637929726785852 0.14160569249109467 0.17482355660240007 0.30321180726687286 0.339701299539464 0.24345321173444623 0.17595795540256404 0.2936094479999892 0.18549251505383035 0.19183219898785617 0:1.0 1:0.45454545454545453 2:0.6551724137931034 3:0.603448275862069 4:0.88 5:0.7719298245614035 6:0.6363636363636364 
0.0 0.0 0.0 0.16248117418090252 0.0 0.0 0.0 0.0 0.0 0.0 0.0 0.0 0.0 0.0 0.0 0.0 0.0 0.0 0.0 0.0 0.0 0.0 0.0 0.0 0.0 0.0 0.0 0.0 0.0 0.0 0.0 0.0 0.0 0.0 0.0 0.0 0.0 0.0 0.0 0.0 0.0 0.0 0.0 0.0 0.0 0.0 0.0 0.0 0.0 0:0.8 1:0.5454545454545454 2:0.5517241379310345 3:0.7586206896551724 4:0.72 5:0.6666666666666666 6:0.5 
0.0 0.0 0.0 0.0 0.0 0.0 0.0 0.0 0.0 0.0 2.1364575326750157 0.0 0.0 0.0 0.0 0.0 0.0 0.0 0.0 0.0 0.0 0.0 0.0 0.0 0.0 0.0 0.0 0.0 0.0 0.0 0.0 0.0 0.0 0.0 0.0 0.0 0.0 0.0 0.0 0.0 0.0 0.0 0.0 0.0 0.0 0.0 0.0 0.0 0.0 0:0.84 1:0.6363636363636364 2:0.5862068965517241 3:0.7241379310344828 4:0.52 5:0.6666666666666666 6:0.5 
1.0528539263838257 0.0 0.0 0.0 0.0 0.0 0.0 0.0 0.0 0.0 0.0 0.0 0.0 0.0 0.0 0.0 0.0 0.0 0.0 0.0 0.0 0.0 0.0 0.0 0.0 0.0 0.0 0.0 0.0 0.0 0.0 0.0 0.0 0.0 0.0 0.0 0.0 0.0 0.0 0.0 0.0 0.0 0.0 0.0 0.0 0.0 0.0 0.0 0.0 0:0.8 1:0.7272727272727273 2:0.6206896551724138 3:0.6724137931034483 4:0.64 5:0.7543859649122807 6:0.5 
0.0 0.0 0.0 0.0 0.0 7.367737591737333 0.0 0.0 0.0 0.0 0.0 0.0 0.0 0.0 0.0 0.0 0.0 0.0 0.0 0.0 0.0 0.0 0.0 0.0 0.0 0.0 0.0 0.0 0.0 0.0 0.0 0.0 0.0 0.0 0.0 0.0 0.0 0.0 0.0 0.0 0.0 0.0 0.0 0.0 0.0 0.0 0.0 0.0 0.0 0:0.8 1:0.5 2:0.5172413793103449 3:0.7413793103448276 4:0.64 5:0.7719298245614035 6:0.4090909090909091 
8.0 0.0 2.803767633536723 0.0 0.9664527005966393 8.0 0.0 8.0 0.0 6.105739219541663 5.032418977601113 0.742881125840839 1.0649649081487313 0.8505235344166079 3.1990188405114943 1.3852316073989956 0.2953519582034051 0.876896602598515 0.2252986065668535 0.0 0.0343845774927801 0.0 0.3993492865173899 0.13486833908947038 0.4137427914229238 0.07931084492426016 0.17564767918889382 0.3043845325394505 0.0 0.5263034166729103 0.16689178727358245 0.316262507863586 0.1524186744797365 0.025239188839306186 1.8774834791982704 1.0167654923661276 0.0 0.090696724009018 0.0314742625722562 0.0 0.09591813229419752 0.0 0.1788635150014642 0.06367242383236738 0.0 0.47233966930438187 0.0 0.4582972939983594 0.08184579432363057 0:0.68 1:0.5454545454545454 2:0.5172413793103449 3:0.7413793103448276 4:0.56 5:0.7368421052631579 6:0.4090909090909091 
0.0 0.0 0.0 0.0 0.0 8.0 0.0 0.0 8.0 0.0 0.0 0.0 0.0 0.0 0.0 0.0 0.0 0.0 0.0 0.0 0.0 0.0 0.0 0.0 0.0 0.0 0.0 0.0 0.0 0.0 0.0 0.0 0.0 0.0 0.0 0.0 0.0 0.0 0.0 0.0 0.0 0.0 0.0 0.0 0.0 0.0 0.0 0.0 0.0 0:0.8 1:0.45454545454545453 2:0.5862068965517241 3:0.7068965517241379 4:0.56 5:0.7192982456140351 6:0.4090909090909091 
0.0 0.0 0.0 1.6447205364610773 0.0 0.0 0.0 0.0 4.128286495690399 0.0 0.0 0.0 0.0 0.0 0.0 0.0 0.0 0.0 0.0 0.0 0.0 0.0 0.0 0.0 0.0 0.0 0.0 0.0 0.0 0.0 0.0 0.0 0.0 0.0 0.0 0.0 0.0 0.0 0.0 0.0 0.0 0.0 0.0 0.0 0.0 0.0 0.0 0.0 0.0 0:0.8 1:0.4090909090909091 2:0.6206896551724138 3:0.7068965517241379 4:0.72 5:0.7368421052631579 6:0.5 
8.0 0.0 0.0 0.0 0.0 8.0 0.0 0.0 0.0 0.0 0.0 0.0 0.0 0.0 0.0 0.0 0.0 0.0 0.0 0.0 0.0 0.0 0.0 0.0 0.0 0.0 0.0 0.0 0.0 0.0 0.0 0.0 0.0 0.0 0.0 0.0 0.0 0.0 0.0 0.0 0.0 0.0 0.0 0.0 0.0 0.0 0.0 0.0 0.0 0:0.72 1:0.5454545454545454 2:0.6551724137931034 3:0.7068965517241379 4:0.68 5:0.6666666666666666 6:0.3181818181818182 
0.0 0.0 0.0 0.0 0.0 5.372465201493218 0.0 0.0 0.0 0.0 0.0 0.0 0.0 0.0 0.0 0.0 0.0 0.0 0.0 0.0 0.0 0.0 0.0 0.0 0.0 0.0 0.0 0.0 0.0 0.0 0.0 0.0 0.0 0.0 0.0 0.0 0.0 0.0 0.0 0.0 0.0 0.0 0.0 0.0 0.0 0.0 0.0 0.0 0.0 0:0.8 1:0.5454545454545454 2:0.6896551724137931 3:0.7068965517241379 4:0.56 5:0.7368421052631579 6:0.45454545454545453 
8.0 0.8568797960908745 8.0 8.0 0.0 0.0 0.3781191284105375 0.0 4.916544507286111 0.0 0.0 0.10717412458029263 0.0 0.0 0.0 0.0 0.0 0.0 0.0 0.0 0.0 0.0 0.0 0.0 0.0 0.0 0.0 0.0 0.0 0.0 0.0 0.0 0.0 0.0 0.0 0.0 0.0 0.0 0.0 0.0 0.0 0.0 0.0 0.0 0.0 0.0 0.0 0.0 0.0 0:0.72 1:0.3181818181818182 2:0.6206896551724138 3:0.6896551724137931 4:0.76 5:0.7368421052631579 6:0.4090909090909091 
0.0 0.0 0.0 0.0 0.0 8.0 0.0 0.0 8.0 0.0 0.0 0.0 0.0 0.0 0.0 0.0 0.0 0.0 0.0 0.0 0.0 0.0 0.0 0.0 0.0 0.0 0.0 0.0 0.0 0.0 0.0 0.0 0.0 0.0 0.0 0.0 0.0 0.0 0.0 0.0 0.0 0.0 0.0 0.0 0.0 0.0 0.0 0.0 0.0 0:0.8 1:0.45454545454545453 2:0.5862068965517241 3:0.6896551724137931 4:0.6 5:0.7368421052631579 6:0.36363636363636365 
0.0 0.0 0.0 0.0 0.0 0.0 0.0 1.48810877650885 1.2900960165961348 0.0 0.0 0.0 0.0 0.0 0.0 0.0 0.0 0.0 0.0 0.0 0.0 0.0 0.0 0.0 0.0 0.0 0.0 0.0 0.0 0.0 0.0 0.0 0.0 0.0 0.0 0.0 0.0 0.0 0.0 0.0 0.0 0.0 0.0 0.0 0.0 0.0 0.0 0.0 0.0 0:0.76 1:0.5454545454545454 2:0.5862068965517241 3:0.6896551724137931 4:0.56 5:0.7543859649122807 6:0.45454545454545453 
6.652769289771494 0.0 0.0 0.0 0.0 0.0 0.0 0.0 8.0 0.0 0.0 0.0 0.0 0.0 0.0 0.0 0.0 0.0 0.0 0.0 0.0 0.0 0.0 0.0 0.0 0.0 0.0 0.0 0.0 0.0 0.0 0.0 0.0 0.0 0.0 0.0 0.0 0.0 0.0 0.0 0.0 0.0 0.0 0.0 0.0 0.0 0.0 0.0 0.0 0:0.76 1:0.45454545454545453 2:0.5517241379310345 3:0.6724137931034483 4:0.64 5:0.7543859649122807 6:0.4090909090909091 
8.0 0.0 0.0 8.0 0.0 0.0 0.0 0.0 0.0 0.0 0.0 0.0 0.0 0.0 0.7885844531583939 0.0 0.0 0.13247032528724328 0.0 0.0 0.0 0.0 0.0 0.0 0.0 0.0 0.0 0.0 0.0 0.0 0.0 0.0 0.0 0.0 0.0 0.0 0.0 0.0 0.0 0.0 0.0 0.0 0.0 0.0 0.0 0.0 0.0 0.0 0.0 0:0.76 1:0.45454545454545453 2:0.5172413793103449 3:0.6724137931034483 4:0.72 5:0.7368421052631579 6:0.3181818181818182 
0.0 0.0 0.0 0.0 0.0 0.0 0.0 0.0 3.6409151331077676 0.0 0.0 0.0 0.0 0.0 0.0 0.0 0.0 0.0 0.0 0.0 0.0 0.0 0.0 0.0 0.0 0.0 0.0 0.0 0.0 0.0 0.0 0.0 0.0 0.0 0.0 0.0 0.0 0.0 0.0 0.0 0.0 0.0 0.0 0.0 0.0 0.0 0.0 0.0 0.0 0:0.8 1:0.45454545454545453 2:0.6551724137931034 3:0.6724137931034483 4:0.64 5:0.7368421052631579 6:0.4090909090909091 
0.0 0.0 0.0 0.0 0.0 0.0 0.0 0.0 0.0 0.0 0.0 0.0 0.0 0.0 0.0 0.0 0.009301016864767479 0.0 0.1318570706719894 0.018559792813545167 0.0 0.0 0.0 0.006446562754143102 0.0 0.011349163458248126 0.046462108222445384 0.0 0.031705929448671816 0.0 0.0337854767052742 0.0 0.0 0.01357099756460214 0.0 0.0 0.016806835681013838 0.008554601905961357 0.0 0.01143058477502815 0.0 0.0 0.0 0.0 0.0 0.0 0.0 0.0 0.0 0:0.8 1:0.7272727272727273 2:0.6896551724137931 3:0.7586206896551724 4:0.56 5:0.7017543859649122 6:0.5454545454545454 
0.19550223561181623 0.0 0.0 0.0 0.0 0.0 0.0 0.0 0.0 0.0 0.0 0.0 0.0 0.0 0.0 0.0 0.0 0.0 0.0 0.0 0.0 0.0 0.0 0.0 0.0 0.0 0.0 0.0 0.0 0.0 0.0 0.0 0.0 0.0 0.0 0.0 0.0 0.0 0.0 0.0 0.0 0.0 0.0 0.0 0.0 0.0 0.0 0.0 0.0 0:0.72 1:0.6363636363636364 2:0.6896551724137931 3:0.7413793103448276 4:0.56 5:0.6666666666666666 6:0.5454545454545454 
0.0 0.0 0.0 0.0 0.0 0.0 0.0 0.0 0.0 0.0 0.0 0.08427392566192121 0.0 0.0 0.0 0.0 0.0 0.0 0.0 0.0 0.0 0.0 0.0 0.0 0.0 0.0 0.0 0.0 0.0 0.0 0.0 0.0 0.0 0.0 0.0 0.0 0.0 0.0 0.0 0.0 0.0 0.0 0.0 0.0 0.0 0.0 0.0 0.0 0.0 0:0.92 1:0.6363636363636364 2:0.6896551724137931 3:0.8103448275862069 4:0.64 5:0.7017543859649122 6:0.5454545454545454 
1.6773092294458951 0.0 0.0 0.0 0.0 0.0 0.0 0.0 0.0 0.0 0.0 0.0 0.0 0.0 0.0 0.0 0.0 0.0 0.0 0.0 0.0 0.0 0.0 0.0 0.0 0.0 0.0 0.0 0.0 0.0 0.0 0.14626058598077582 0.0 0.0 2.9399675671212995 1.2832605278836868 0.0 0.0 0.0 0.0 0.5673693052820257 0.7811689560836638 0.0 0.3684667550562648 0.08324783153516857 0.16925977774633852 0.0 0.32475880869070217 0.1862267272100436 0:0.68 1:0.6363636363636364 2:0.6206896551724138 3:0.7586206896551724 4:0.64 5:0.7192982456140351 6:0.5909090909090909 
0.0 0.0 0.0 0.0 0.0 1.780501802578645 0.0 0.0 0.0 0.0 0.0 0.7318613285006256 0.0 0.0 0.0 0.0 0.0 0.0 0.0 0.0 0.0 0.0 0.0 0.0 0.0 0.0 0.0 0.0 0.0 0.0 0.0 0.0 0.0 0.0 0.0 0.0 0.0 0.0 0.0 0.0 0.0 0.0 0.0 0.0 0.0 0.0 0.0 0.0 0.0 0:0.84 1:0.36363636363636365 2:0.6551724137931034 3:0.7758620689655172 4:0.6 5:0.6491228070175439 6:0.45454545454545453 
0.0 0.0 0.0 0.0 0.0 0.0 0.0 0.0 0.0 0.0 0.614618508138406 0.0 0.0 0.0 0.0 0.0 0.0 0.0 0.0 0.0 0.0 0.0 0.0 0.0 0.0 0.0 0.0 0.0 0.0 0.0 0.0 0.0 0.0 0.0 0.0 0.0 0.0 0.0 0.0 0.0 0.0 0.0 0.0 0.0 0.0 0.0 0.0 0.0 0.0 0:0.88 1:0.5454545454545454 2:0.5517241379310345 3:0.7931034482758621 4:0.6 5:0.7368421052631579 6:0.45454545454545453 
5.461927150303211 0.0 0.0 0.0 1.8410707032221958 8.0 1.9084175274283082 1.0936122672172466 0.0 1.0839695521833925 0.015776057063191764 1.058029542880058 0.8394033738183632 0.4854823382224855 2.171857812710936 0.6185255959740088 0.38701861901240625 0.2439404913350909 0.2220804643617833 0.4839359725004818 0.23254541254342256 0.20924032045561763 0.0 0.17506931859742297 0.0 0.11004936341273974 0.08772090954047283 0.05028222126339307 0.1373157986809852 0.046892324135345005 0.031832817553439696 0.0 0.09999953643180326 0.1605420723740151 0.0 0.0 0.14720643059824137 0.1290107055675222 0.14360265015260645 0.16728358400760374 0.09798340759999237 0.11158321739928109 0.17364757819988028 0.22145755337652734 0.16184063340833937 0.0 0.20816704935636945 0.0 0.12005801538417417 0:0.76 1:0.5454545454545454 2:0.5862068965517241 3:0.7241379310344828 4:0.64 5:0.7543859649122807 6:0.18181818181818182 
0.0 0.0 0.0 0.0 0.0 8.0 0.0 0.0 0.0 0.0 0.0 0.0 0.0 0.0 0.0 0.0 0.0 0.0 0.0 0.0 0.0 0.0 0.0 0.0 0.0 0.0 0.0 0.0 0.0 0.0 0.0 0.0 0.0 0.0 0.0 0.0 0.0 0.0 0.0 0.0 0.0 0.0 0.0 0.0 0.0 0.0 0.0 0.0 0.0 0:0.84 1:0.5454545454545454 2:0.5517241379310345 3:0.7241379310344828 4:0.6 5:0.6842105263157895 6:0.36363636363636365 
0.0 0.0 0.0 0.0 0.0 0.0 0.0 0.0 8.0 0.0 0.33905149040072563 0.0 0.0 0.0 0.0 0.0 0.0 0.0 0.0 0.0 0.0 0.0 0.0 0.0 0.0 0.0 0.0 0.0 0.0 0.0 0.0 0.0 0.0 0.0 0.0 0.0 0.0 0.0 0.0 0.0 0.0 0.0 0.0 0.0 0.0 0.0 0.0 0.0 0.0 0:0.92 1:0.36363636363636365 2:0.5862068965517241 3:0.6724137931034483 4:0.68 5:0.6666666666666666 6:0.5 
0.0 0.0 0.0 0.0 0.0 0.0 0.0 0.0 0.0 0.0 0.0 0.0 0.0 0.12383055382619387 0.0 0.0 0.18649840570829151 0.0 0.0 0.1652067372136579 0.12458781132308343 0.05011666847431281 0.051704737743362685 0.19948463698801838 0.11581580344263313 0.12689941526954684 0.11178811501370593 0.12508893799025242 0.12867727437164875 0.14609108322466838 0.0782593352424913 0.01991856267964321 0.1538777867076194 0.15679870960177714 0.0 0.0 0.13762201297650586 0.15444865040046504 0.13321125155643646 0.15876752135184172 0.0 0.0 0.16308679940008142 0.0 0.05029171624156424 0.047449668181025174 0.19870688449908275 0.0 0.0 0:0.92 1:0.6363636363636364 2:0.7931034482758621 3:0.6896551724137931 4:0.64 5:0.6140350877192983 6:0.5 
0.0 0.0 0.0 0.0 0.0 0.0 0.0 0.0 0.0 0.0 0.0 0.007650974797845553 0.0 0.02183506773279083 0.0 0.0 0.0 0.00945240503954952 0.0 0.028435755911537925 0.00694137443410585 0.036180133533337114 0.0 0.0 0.0 0.0 0.0 0.0 0.0 0.0 0.0 0.0 0.0 0.0 0.0 0.0 0.0 0.0 0.0 0.0 0.0 0.0 0.0 0.0 0.12574613261998666 0.0 0.0 0.0 0.0 0:0.76 1:0.5909090909090909 2:0.7586206896551724 3:0.7068965517241379 4:0.8 5:0.631578947368421 6:0.6818181818181818 
0.0 0.0 2.272192322584259 0.0 0.0 0.0 0.0 0.0 0.0 0.0 0.0 0.0 0.0 0.0 0.0 0.0 0.0 0.0 0.0 0.0 0.0 0.0 0.0 0.0 0.0 0.0 0.0 0.0 0.0 0.0 0.0 0.0 0.0 0.0 0.0 0.0 0.0 0.0 0.0 0.0 0.0 0.0 0.0 0.0 0.0 0.0 0.0 0.0 0.0 0:0.68 1:0.5909090909090909 2:0.7241379310344828 3:0.6551724137931034 4:0.72 5:0.7894736842105263 6:0.5454545454545454 
0.0 0.0 8.0 6.436375181444792 0.0 0.0 0.0 0.0 0.0 0.0 0.0 0.0 0.0 0.0 0.0 0.0 0.0 0.0 0.0 0.0 0.0 0.0 0.0 0.0 0.0 0.0 0.0 0.0 0.0 0.0 0.0 0.0 0.0 0.0 0.0 0.0 0.0 0.0 0.0 0.0 0.0 0.0 0.0 0.0 0.0 0.0 0.0 0.0 0.0 0:0.72 1:0.5 2:0.7241379310344828 3:0.7241379310344828 4:0.88 5:0.7543859649122807 6:0.5454545454545454 
0.0 8.0 0.0 0.0 0.0 0.0 0.0 0.0 8.0 0.0 0.0 0.0 0.0 0.0 0.0 0.0 0.0 0.0 0.0 0.0 0.0 0.0 0.0 0.0 0.0 0.0 0.0 0.0 0.0 0.0 0.0 0.0 0.0 0.0 0.0 0.0 0.0 0.0 0.0 0.0 0.0 0.0 0.0 0.0 0.0 0.0 0.0 0.0 0.0 0:0.72 1:0.3181818181818182 2:0.6896551724137931 3:0.6206896551724138 4:0.64 5:0.7543859649122807 6:0.5454545454545454 
0.0 0.0 2.1888963491233566 8.0 0.0 0.0 0.0 0.0 0.0 0.0 0.0 0.0 0.0 0.0 0.0 0.0 0.0 0.0 0.0 0.0 0.0 0.0 0.0 0.0 0.0 0.0 0.0 0.0 0.0 0.0 0.0 0.0 0.0 0.0 0.0 0.0 0.0 0.0 0.0 0.0 0.0 0.0 0.0 0.0 0.0 0.0 0.0 0.0 0.0 0:0.68 1:0.36363636363636365 2:0.6896551724137931 3:0.6896551724137931 4:0.8 5:0.7017543859649122 6:0.5454545454545454 
1.6554256346297829 1.1626942791564805 0.0 8.0 0.0 0.0 0.0 0.0 0.0 0.0 0.07571979798275907 0.0 0.012087921583681367 0.24030161579405174 0.2603313002041917 0.4076291874859768 0.33290934738226946 0.21603592442541347 0.0 0.14430407847605128 0.23737332115487042 0.14739634939041757 0.15962913541192772 0.3622029016002487 0.30298677447877376 0.21920982943005832 0.16296971577248978 0.2054669680274535 0.17625599983447965 0.5027473200897393 0.15680406700686025 0.13192838799641338 0.4816308495845494 0.3615660555944028 0.3805768705142734 0.17153540131925515 0.19543342334640493 0.22093870940525695 0.2182717681003053 0.20499104403096322 0.47131486932324995 0.3465842439525931 0.26597779939692767 0.566701287076977 0.26181987446166566 0.21703057834216666 0.28544656511275224 0.21777283677671724 0.30514811861840024 0:0.64 1:0.3181818181818182 2:0.6206896551724138 3:0.7068965517241379 4:0.88 5:0.7192982456140351 6:0.6363636363636364 
0.19895039845377055 0.0 4.926562604647407 0.0 0.0 0.0 0.0 0.0 0.0 0.0 0.0 0.0 0.0 0.0 0.0 0.0 0.0 0.0 0.0 0.0 0.0 0.0 0.0 0.0 0.0 0.0 0.0 0.0 0.0 0.0 0.0 0.0 0.0 0.0 0.0 0.0 0.0 0.0 0.0 0.0 0.0 0.0 0.0 0.0 0.0 0.0 0.0 0.0 0.0 0:0.6 1:0.36363636363636365 2:0.6896551724137931 3:0.7068965517241379 4:0.84 5:0.7192982456140351 6:0.6363636363636364 
0.8768647054867023 0.0 0.0 8.0 0.0 0.0 0.0 0.0 0.0 0.0 0.0 0.0 0.0 0.0 0.0 0.0 0.0 0.0 0.0 0.0 0.0 0.0 0.0 0.0 0.0 0.0 0.0 0.0 0.0 0.0 0.0 0.0 0.0 0.0 0.0 0.0 0.0 0.0 0.0 0.0 0.0 0.0 0.0 0.0 0.0 0.0 0.0 0.0 0.0 0:0.68 1:0.4090909090909091 2:0.6896551724137931 3:0.6206896551724138 4:0.76 5:0.7543859649122807 6:0.5 
0.0 0.0 0.0 0.0 0.0 0.0 0.0 0.0 8.0 0.0 0.0 0.0 0.0 0.0 0.0 0.0 0.0 0.0 0.0 0.0 0.0 0.0 0.0 0.0 0.0 0.0 0.0 0.0 0.0 0.0 0.0 0.0 0.0 0.0 0.0 0.0 0.0 0.0 0.0 0.0 0.0 0.0 0.0 0.0 0.0 0.0 0.0 0.0 0.0 0:0.72 1:0.36363636363636365 2:0.6551724137931034 3:0.603448275862069 4:0.64 5:0.7543859649122807 6:0.5454545454545454 
2.7141763470556226 5.041500301206943 0.16253459634003314 0.0 0.3887599900767065 1.312804408418937 0.11773635886859976 2.9225340998239804 4.905141156399723 4.538241313888733 4.697130228446217 1.7112947901629865 1.0640323052032092 0.6574650643505388 1.1085777738995533 1.6006265708513268 0.6822840785452482 2.447343827333294 3.3358607385421353 1.998601747791262 1.5831423539139666 1.9880153829971607 1.3852892345423535 0.7955669656659987 0.8223624601133288 0.6345018388738252 0.6935799041676669 0.4649188306286756 0.4833071022481748 0.76022629159946 0.8594303372415708 0.46398714259924556 0.6082766292714745 0.7307255206175524 0.5907266082915126 0.4182833226567517 0.4479283508721112 0.5802849465677635 0.4210347384439129 0.5114829121572635 0.41180056472806703 0.39080893948314593 0.6716014114520414 0.6153137360187952 0.5415413839761578 0.4540140620590789 0.6128801232395097 0.4244084443968247 0.46792510772448564 0:0.68 1:0.2727272727272727 2:0.6206896551724138 3:0.7413793103448276 4:0.4 5:0.7017543859649122 6:0.45454545454545453 
2.5610426058634683 0.0 0.0 0.0 0.0 0.0 0.0 0.0 8.0 0.0 0.0 0.0 0.0 0.0 0.0 0.0 0.0 0.0 0.0 0.0 0.0 0.0 0.0 0.0 0.0 0.0 0.0 0.0 0.0 0.0 0.0 0.0 0.0 0.0 0.0 0.0 0.0 0.0 0.0 0.0 0.0 0.0 0.0 0.0 0.0 0.0 0.0 0.0 0.0 0:0.76 1:0.3181818181818182 2:0.5862068965517241 3:0.6724137931034483 4:0.6 5:0.6491228070175439 6:0.5909090909090909 
0.0 2.0639285979481694 0.0 0.0 0.0 0.0 0.0 0.0 0.0 0.0 0.0 0.0 0.0 0.0 0.0 0.0 0.0 0.0 0.0 0.0 0.0 0.0 0.0 0.0 0.0 0.0 0.0 0.0 0.0 0.0 0.0 0.0 0.0 0.0 0.0 0.0 0.0 0.0 0.0 0.0 0.0 0.0 0.0 0.0 0.0 0.0 0.0 0.0 0.0 0:0.68 1:0.36363636363636365 2:0.7241379310344828 3:0.6724137931034483 4:0.56 5:0.7192982456140351 6:0.6363636363636364 
0.0 0.0 0.0 0.0 0.0 0.0 0.0 0.0 5.397150630288122 0.0 0.0 0.0 0.0 0.0 0.0 0.0 0.0 0.0 0.0 0.0 0.0 0.0 0.0 0.0 0.0 0.0 0.0 0.0 0.0 0.0 0.0 0.0 0.0 0.0 0.0 0.0 0.0 0.0 0.0 0.0 0.0 0.0 0.0 0.0 0.0 0.0 0.0 0.0 0.0 0:0.76 1:0.2727272727272727 2:0.6551724137931034 3:0.6896551724137931 4:0.64 5:0.7017543859649122 6:0.6363636363636364 
0.0 0.9784011733972551 0.0 0.0 0.0 0.0 0.0 0.0 8.0 0.0 0.0 0.0 0.0 0.0 0.0 0.0 0.0 0.0 0.0 0.0 0.0 0.0 0.0 0.0 0.0 0.0 0.0 0.0 0.0 0.0 0.0 0.0 0.0 0.0 0.0 0.0 0.0 0.0 0.0 0.0 0.0 0.0 0.0 0.0 0.0 0.0 0.0 0.0 0.0 0:0.76 1:0.2727272727272727 2:0.6551724137931034 3:0.6724137931034483 4:0.64 5:0.7017543859649122 6:0.6363636363636364 
0.0 0.0 0.0 0.0 0.0 0.0 0.0 0.0 8.0 0.0 0.0 0.0 0.0 0.0 0.0 0.0 0.0 0.0 0.0 0.0 0.0 0.0 0.0 0.0 0.0 0.0 0.0 0.0 0.0 0.0 0.0 0.0 0.0 0.0 0.0 0.0 0.0 0.0 0.0 0.0 0.0 0.0 0.0 0.0 0.0 0.0 0.0 0.0 0.0 0:0.84 1:0.36363636363636365 2:0.6206896551724138 3:0.6379310344827587 4:0.56 5:0.7017543859649122 6:0.5 
8.0 1.2320337378543718 8.0 8.0 1.1717776596299116 0.0 0.0 0.0 0.0 0.0 0.0 0.035095333541146974 0.0 0.0 0.0 0.0 0.0 0.0 0.0 0.0 0.0 0.0 0.0 0.0 0.0 0.0 0.0 0.0 0.0 0.0 0.0 0.0 0.0 0.0 0.0 0.0 0.0 0.0 0.0 0.0 0.0 0.0 0.0 0.0 0.0 0.0 0.0 0.0 0.0 0:0.64 1:0.4090909090909091 2:0.6896551724137931 3:0.7068965517241379 4:0.64 5:0.7017543859649122 6:0.45454545454545453 
4.574202682215946 0.0 0.0 8.0 0.0 0.0 0.0 0.0 0.0 0.0 0.0 0.0 0.0 0.0 0.0 0.0 0.0 0.0 0.0 0.0 0.0 0.0 0.0 0.0 0.0 0.0 0.0 0.0 0.0 0.0 0.0 0.0 0.0 0.0 0.0 0.0 0.0 0.0 0.0 0.0 0.0 0.0 0.0 0.0 0.0 0.0 0.0 0.0 0.0 0:0.76 1:0.45454545454545453 2:0.6551724137931034 3:0.6379310344827587 4:0.76 5:0.7017543859649122 6:0.36363636363636365 
0.0 0.0 0.0 0.0 0.0 0.0 0.0 0.0 0.0 0.0 1.3275465640280983 0.0 0.0 0.0 0.0 0.0 0.0 0.0 0.0 0.0 0.0 0.0 0.0 0.0 0.0 0.0 0.0 0.0 0.0 0.0 0.0 0.0 0.0 0.0 0.0 0.0 0.0 0.0 0.0 0.0 0.0 0.0 0.0 0.0 0.0 0.0 0.0 0.0 0.0 0:0.76 1:0.5 2:0.6551724137931034 3:0.6551724137931034 4:0.52 5:0.7017543859649122 6:0.6818181818181818 
0.0 0.0 0.0 0.0 0.1533972187012093 0.0 0.0 0.0 0.0 0.0 0.052684920656534066 0.0 0.2943447421465437 0.3680916637298768 0.24496162890360895 0.27436503718370464 0.35140061047331156 0.2050320070188266 0.2612343443087328 0.39707852838812535 0.3979205072115842 0.27339079027201013 0.3598132580631831 0.46809567219627884 0.33071356051713524 0.34423361352929704 0.37218821018962905 0.3598501055811739 0.3198700046297524 0.2678703805814141 0.34718501408867225 0.31482914002919254 0.31438366963164277 0.35048096282490343 0.2629791574153593 0.27072078198204585 0.3163644588776177 0.40269146774452075 0.3265826344195048 0.3691337213900955 0.23525814685393753 0.3589650891811271 0.5249891643432528 0.4229783630211246 0.3723901368979346 0.30973336051539024 0.4717740192889946 0.3362598904282947 0.3239538438406613 0:0.68 1:0.36363636363636365 2:0.7586206896551724 3:0.6206896551724138 4:0.76 5:0.7017543859649122 6:0.8181818181818182 
0.0 0.0 8.0 3.2050850260697965 0.7233230554587644 0.1983851836306778 8.0 0.0 0.0 0.0 0.0 0.0 0.0 0.0 0.0 0.0 0.0 0.0 0.0 0.0 0.0 0.0 0.0 0.0 0.0 0.0 0.0 0.0 0.0 0.0 0.0 0.0 0.0 0.0 0.0 0.0 0.0 0.0 0.0 0.0 0.0 0.0 0.0 0.0 0.0 0.0 0.0 0.0 0.0 0:0.72 1:0.45454545454545453 2:0.6896551724137931 3:0.7068965517241379 4:0.76 5:0.7543859649122807 6:0.2727272727272727 
0.08915748839450782 0.0 0.421704134835366 0.0 0.0 0.0 0.0 0.0 0.0 0.0 0.0 0.0 0.0 0.0 0.0 0.0 0.0 0.0 0.0 0.0 0.0 0.0 0.0 0.0 0.0 0.0 0.0 0.0 0.0 0.0 0.0 0.0 0.0 0.0 0.0 0.0 0.0 0.0 0.0 0.0 0.0 0.0 0.0 0.0 0.0 0.0 0.0 0.0 0.0 0:0.76 1:0.5454545454545454 2:0.6896551724137931 3:0.6379310344827587 4:0.8 5:0.7017543859649122 6:0.36363636363636365 
0.0 0.0 0.0 0.0 0.0 0.0 0.0 0.0 0.0 0.0 0.04544125249765935 0.153742764371797 0.15531609948910322 0.2576130627561786 0.0 0.18351161015460743 0.2561917959682821 0.1613647194270492 0.2589624754449649 0.35796927786937366 0.3460518370906206 0.27675342193599106 0.31530859258167904 0.39626787980568773 0.2810895987983008 0.27714180858190934 0.3083066139800614 0.29764387441534274 0.26128794123552057 0.26249551806064486 0.27812656550883824 0.2784338277840303 0.310832970862436 0.3065850443291343 0.38375507365696443 0.3037372673844912 0.2635593981354317 0.32631275679020355 0.27761487569268156 0.3029274311611321 0.27463768628758845 0.29946493342279606 0.4477057595530946 0.4509334679247212 0.3514686754853361 0.2728760933613017 0.3884502965881612 0.31807042774457406 0.33839691917631826 0:1.0 1:0.36363636363636365 2:0.6896551724137931 3:0.7241379310344828 4:0.92 5:0.7017543859649122 6:0.36363636363636365 
5.7137238252088975 1.1973507054929031 0.0 0.0 0.0 5.470780059294472 0.0 0.44333847027782686 8.0 5.7452707870133075 0.515905552291059 4.872743100515001 0.0 0.0 0.7278406299090047 0.0 0.0 0.0 0.0 0.0 0.0 0.0 0.0 0.0 0.0 0.0 0.0 0.0 0.0 0.0 0.0 0.0 0.0 0.0 0.0 0.0 0.0 0.0 0.0 0.0 0.0 0.0 0.0 0.0 0.0 0.0 0.0 0.0 0.0 0:0.76 1:0.3181818181818182 2:0.6206896551724138 3:0.6379310344827587 4:0.56 5:0.7719298245614035 6:0.4090909090909091 
0.0 0.0 0.0 0.0 0.0 0.870414888727121 0.0 0.0 0.0 0.0 0.0 0.0 0.0 0.0 0.0 0.0 0.0 0.0 0.0 0.0 0.0 0.0 0.0 0.0 0.0 0.0 0.0 0.0 0.0 0.0 0.0 0.0 0.0 0.0 0.0 0.0 0.0 0.0 0.0 0.0 0.0 0.0 0.0 0.0 0.0 0.0 0.0 0.0 0.0 0:0.8 1:0.36363636363636365 2:0.6551724137931034 3:0.6551724137931034 4:0.72 5:0.7192982456140351 6:0.2727272727272727 
0.0 0.0 0.0 0.0 0.0 0.0 0.0 0.0 0.0 0.0 0.0 0.0 0.0 0.0 0.0 0.0 0.03303776262776525 0.0 0.0 0.0 0.0037310586037769093 0.0 0.050231360083425755 0.10817082245334977 0.0 0.085956513525426 0.10785693143012087 0.11000932567601168 0.0796248879773769 0.0 0.09092939898796595 0.14966868158102156 0.09209897593281524 0.05887383341564204 0.08888010996706007 0.09845455345813174 0.08255417847362165 0.10746255810748684 0.09762017112314883 0.09161158870728799 0.12410398475416587 0.12088339672414505 0.17639419380037807 0.1729777640411035 0.14331931727114827 0.11820914798934479 0.12963167963327693 0.15904087460247568 0.1581028709939927 0:0.76 1:0.4090909090909091 2:0.7931034482758621 3:0.6896551724137931 4:0.72 5:0.7543859649122807 6:0.18181818181818182 
0.0 0.0 0.0 0.0 1.011801026632611 4.482457159364208 8.0 1.0220557834150554 0.0 0.0 1.6956305112201693 2.8288452272735616 0.13973493397106843 0.3182360515887167 1.415777212916863 0.5162757221845314 0.3815820698010682 0.4709074628377085 0.09028804799398095 0.23533262135231475 0.20995769340460327 0.16788292916360104 0.13971271607068808 0.25092680035212056 0.2950007509068373 0.14790994210305095 0.1454304092791622 0.17075143998836292 0.1463069513620804 0.38777690351237165 0.12729600843124433 0.09245429113891052 0.2023039966005333 0.2035457035742405 0.12645870323272718 0.1353068862434158 0.14711945971619897 0.18102283704818145 0.15174407535439605 0.17362769898434507 0.1267547161748831 0.16368800309769485 0.2163013452864668 0.20483541472794384 0.1761715739925825 0.11783860489453135 0.22088954031003372 0.13513153703265698 0.14201193376039045 0:0.76 1:0.36363636363636365 2:0.7241379310344828 3:0.7068965517241379 4:0.72 5:0.8245614035087719 6:0.18181818181818182 
